solver_type L2R_L2LOSS_SVC_DUAL
nr_class 6
label 4 6 5 1 2 3
nr_feature 13018
bias -1
w
-0.0007725275104644932 -0.0009741843728496841 -0.0007967946751586191 -0.0009167455618446719 0.001834859786300412 -0.0007424105228626514 
-0.000511887223967789 -0.0005610852410185576 0.001307868201826126 -0.0005751839750604643 -0.0005405342870814439 -0.0004561799210497704 
-0.0002177771380368914 -0.0002794227685064939 -0.0002086398521942479 -0.0003662558599749009 -0.0003022278283269393 0.0008866465032266108 
0.0007186317315954118 -0.0002459309551872264 -0.0001859201422587337 -0.0001846875295242112 -0.0002129297902674897 -0.0001752104027322128 
-9.392607711679707e-05 -8.898315994877661e-05 -5.104248271852434e-05 -0.0001141020907367826 -7.600715263033497e-05 0.0005493423194761726 
-0.0007621827792122644 0.001644846595345662 -0.0007664594070913907 -0.0009054825833407996 -0.0008600448346193793 -0.0007320959235739095 
0.0007186317315954118 -0.0002459309551872264 -0.0001859201422587337 -0.0001846875295242112 -0.0002129297902674897 -0.0001752104027322128 
-0.0001595624388615405 -0.0002302987923374024 -0.0001106792799517207 0.0008459995344557746 -0.0001918330433286589 -0.0001789920330862675 
-0.001227368417172955 0.002428547677829464 -0.001246165331678083 -0.001401120983922005 -0.001472311176552967 -0.001181645455234968 
-0.002885071099134058 -0.0009519161559248318 -0.002873966410706549 0.0004861226775729475 -0.001117992254971284 -0.001078913410235655 
0.0007186317315954118 -0.0002459309551872264 -0.0001859201422587337 -0.0001846875295242112 -0.0002129297902674897 -0.0001752104027322128 
-0.0006416444396329825 -0.0007308178632879172 -0.000563931582516856 -0.0006958541594552285 0.001605450057704141 -0.0005455240602655847 
-0.0006416444396329825 -0.0007308178632879172 -0.000563931582516856 -0.0006958541594552285 0.001605450057704141 -0.0005455240602655847 
-0.0002177771380368914 -0.0002794227685064939 -0.0002086398521942479 -0.0003662558599749009 -0.0003022278283269393 0.0008866465032266108 
-0.0001595624388615405 -0.0002302987923374024 -0.0001106792799517207 0.0008459995344557746 -0.0001918330433286589 -0.0001789920330862675 
-0.0007725275104644932 -0.0009741843728496841 -0.0007967946751586191 -0.0009167455618446719 0.001834859786300412 -0.0007424105228626514 
-0.0007621827792122644 0.001644846595345662 -0.0007664594070913907 -0.0009054825833407996 -0.0008600448346193793 -0.0007320959235739095 
-9.392607711679707e-05 -8.898315994877661e-05 -5.104248271852434e-05 -0.0001141020907367826 -7.600715263033497e-05 0.0005493423194761726 
-0.0002177771380368914 -0.0002794227685064939 -0.0002086398521942479 -0.0003662558599749009 -0.0003022278283269393 0.0008866465032266108 
0.00095000710551143 -0.0001748891547539117 -0.0001513582131268414 -0.0001489236735887717 -0.0002606988035733093 -8.638033592722588e-05 
0.0007186317315954118 -0.0002459309551872264 -0.0001859201422587337 -0.0001846875295242112 -0.0002129297902674897 -0.0001752104027322128 
-0.0007621827792122644 0.001644846595345662 -0.0007664594070913907 -0.0009054825833407996 -0.0008600448346193793 -0.0007320959235739095 
-0.001169540665135124 -0.001497538959527307 -0.001283893086185531 0.002567817371080659 -0.001485162497098772 -0.001237282249098944 
-0.0007725275104644932 -0.0009741843728496841 -0.0007967946751586191 -0.0009167455618446719 0.001834859786300412 -0.0007424105228626514 
0.00095000710551143 -0.0001748891547539117 -0.0001513582131268414 -0.0001489236735887717 -0.0002606988035733093 -8.638033592722588e-05 
-0.000511887223967789 -0.0005610852410185576 0.001307868201826126 -0.0005751839750604643 -0.0005405342870814439 -0.0004561799210497704 
0.0007186317315954118 -0.0002459309551872264 -0.0001859201422587337 -0.0001846875295242112 -0.0002129297902674897 -0.0001752104027322128 
-0.0007621827792122644 0.001644846595345662 -0.0007664594070913907 -0.0009054825833407996 -0.0008600448346193793 -0.0007320959235739095 
-0.0002177771380368914 -0.0002794227685064939 -0.0002086398521942479 -0.0003662558599749009 -0.0003022278283269393 0.0008866465032266108 
-0.0002177771380368914 -0.0002794227685064939 -0.0002086398521942479 -0.0003662558599749009 -0.0003022278283269393 0.0008866465032266108 
-9.392607711679707e-05 -8.898315994877661e-05 -5.104248271852434e-05 -0.0001141020907367826 -7.600715263033497e-05 0.0005493423194761726 
-0.0007621827792122644 0.001644846595345662 -0.0007664594070913907 -0.0009054825833407996 -0.0008600448346193793 -0.0007320959235739095 
-0.0001595624388615405 -0.0002302987923374024 -0.0001106792799517207 0.0008459995344557746 -0.0001918330433286589 -0.0001789920330862675 
-0.0007725275104644932 -0.0009741843728496841 -0.0007967946751586191 -0.0009167455618446719 0.001834859786300412 -0.0007424105228626514 
-0.0002177771380368914 -0.0002794227685064939 -0.0002086398521942479 -0.0003662558599749009 -0.0003022278283269393 0.0008866465032266108 
-0.0002177771380368914 -0.0002794227685064939 -0.0002086398521942479 -0.0003662558599749009 -0.0003022278283269393 0.0008866465032266108 
-0.0006416444396329825 -0.0007308178632879172 -0.000563931582516856 -0.0006958541594552285 0.001605450057704141 -0.0005455240602655847 
-0.000511887223967789 -0.0005610852410185576 0.001307868201826126 -0.0005751839750604643 -0.0005405342870814439 -0.0004561799210497704 
0.0007186317315954118 -0.0002459309551872264 -0.0001859201422587337 -0.0001846875295242112 -0.0002129297902674897 -0.0001752104027322128 
-9.392607711679707e-05 -8.898315994877661e-05 -5.104248271852434e-05 -0.0001141020907367826 -7.600715263033497e-05 0.0005493423194761726 
-9.392607711679707e-05 -8.898315994877661e-05 -5.104248271852434e-05 -0.0001141020907367826 -7.600715263033497e-05 0.0005493423194761726 
0.00095000710551143 -0.0001748891547539117 -0.0001513582131268414 -0.0001489236735887717 -0.0002606988035733093 -8.638033592722588e-05 
0.00095000710551143 -0.0001748891547539117 -0.0001513582131268414 -0.0001489236735887717 -0.0002606988035733093 -8.638033592722588e-05 
-0.001169540665135124 -0.001497538959527307 -0.001283893086185531 0.002567817371080659 -0.001485162497098772 -0.001237282249098944 
0.0007186317315954118 -0.0002459309551872264 -0.0001859201422587337 -0.0001846875295242112 -0.0002129297902674897 -0.0001752104027322128 
-9.392607711679707e-05 -8.898315994877661e-05 -5.104248271852434e-05 -0.0001141020907367826 -7.600715263033497e-05 0.0005493423194761726 
7.698729196242932e-05 -0.0009767488184751435 -0.0007498517247755898 -0.0008805416889794398 0.001392520267436651 -0.0007207344629977974 
-0.001414171950097476 -0.001705002236137601 -0.001360726257675475 -0.001612599721299901 0.003440309844004553 -0.001287934583128236 
-9.392607711679707e-05 -8.898315994877661e-05 -5.104248271852434e-05 -0.0001141020907367826 -7.600715263033497e-05 0.0005493423194761726 
0.0002616186575277327 -0.002032005166533792 0.0002449365012534499 -0.0008727518939096837 0.0003234469808229039 -0.0008929444335848888 
-9.392607711679707e-05 -8.898315994877661e-05 -5.104248271852434e-05 -0.0001141020907367826 -7.600715263033497e-05 0.0005493423194761726 
-9.392607711679707e-05 -8.898315994877661e-05 -5.104248271852434e-05 -0.0001141020907367826 -7.600715263033497e-05 0.0005493423194761726 
-9.392607711679707e-05 -8.898315994877661e-05 -5.104248271852434e-05 -0.0001141020907367826 -7.600715263033497e-05 0.0005493423194761726 
-0.0002177771380368914 -0.0002794227685064939 -0.0002086398521942479 -0.0003662558599749009 -0.0003022278283269393 0.0008866465032266108 
7.698729196242932e-05 -0.0009767488184751435 -0.0007498517247755898 -0.0008805416889794398 0.001392520267436651 -0.0007207344629977974 
0.0007186317315954118 -0.0002459309551872264 -0.0001859201422587337 -0.0001846875295242112 -0.0002129297902674897 -0.0001752104027322128 
-0.0003773395768984319 -0.0005097215608438963 -0.0003193191321459686 0.0004797436744808737 -0.0004940608716555982 0.0007076544701403433 
-9.392607711679707e-05 -8.898315994877661e-05 -5.104248271852434e-05 -0.0001141020907367826 -7.600715263033497e-05 0.0005493423194761726 
0.0007186317315954118 -0.0002459309551872264 -0.0001859201422587337 -0.0001846875295242112 -0.0002129297902674897 -0.0001752104027322128 
0.0007186317315954118 -0.0002459309551872264 -0.0001859201422587337 -0.0001846875295242112 -0.0002129297902674897 -0.0001752104027322128 
0.0006247056544786148 -0.0003349141151360029 -0.000236962624977258 -0.0002987896202609938 -0.0002889369428978245 0.0003741319167439598 
0.0007186317315954118 -0.0002459309551872264 -0.0001859201422587337 -0.0001846875295242112 -0.0002129297902674897 -0.0001752104027322128 
-0.001227368417172955 0.002428547677829464 -0.001246165331678083 -0.001401120983922005 -0.001472311176552967 -0.001181645455234968 
-0.001227368417172955 0.002428547677829464 -0.001246165331678083 -0.001401120983922005 -0.001472311176552967 -0.001181645455234968 
-0.0002177771380368914 -0.0002794227685064939 -0.0002086398521942479 -0.0003662558599749009 -0.0003022278283269393 0.0008866465032266108 
-9.392607711679707e-05 -8.898315994877661e-05 -5.104248271852434e-05 -0.0001141020907367826 -7.600715263033497e-05 0.0005493423194761726 
0.0006247056544786148 -0.0003349141151360029 -0.000236962624977258 -0.0002987896202609938 -0.0002889369428978245 0.0003741319167439598 
-9.392607711679707e-05 -8.898315994877661e-05 -5.104248271852434e-05 -0.0001141020907367826 -7.600715263033497e-05 0.0005493423194761726 
-0.0006026627626943402 0.002093633562693461 -0.001483127956655341 -0.001699910604182999 -0.001761248119450792 -0.0008075135384910077 
-0.0005087366855775432 0.002182616722642237 -0.001432085473936817 -0.001585808513446216 -0.001685240966820457 -0.00135685585796718 
0.0007186317315954118 -0.0002459309551872264 -0.0001859201422587337 -0.0001846875295242112 -0.0002129297902674897 -0.0001752104027322128 
0.00095000710551143 -0.0001748891547539117 -0.0001513582131268414 -0.0001489236735887717 -0.0002606988035733093 -8.638033592722588e-05 
-0.0002177771380368914 -0.0002794227685064939 -0.0002086398521942479 -0.0003662558599749009 -0.0003022278283269393 0.0008866465032266108 
-0.0007621827792122644 0.001644846595345662 -0.0007664594070913907 -0.0009054825833407996 -0.0008600448346193793 -0.0007320959235739095 
0.0007186317315954118 -0.0002459309551872264 -0.0001859201422587337 -0.0001846875295242112 -0.0002129297902674897 -0.0001752104027322128 
-0.0007621827792122644 0.001644846595345662 -0.0007664594070913907 -0.0009054825833407996 -0.0008600448346193793 -0.0007320959235739095 
0.00095000710551143 -0.0001748891547539117 -0.0001513582131268414 -0.0001489236735887717 -0.0002606988035733093 -8.638033592722588e-05 
-9.392607711679707e-05 -8.898315994877661e-05 -5.104248271852434e-05 -0.0001141020907367826 -7.600715263033497e-05 0.0005493423194761726 
0.0007186317315954118 -0.0002459309551872264 -0.0001859201422587337 -0.0001846875295242112 -0.0002129297902674897 -0.0001752104027322128 
0.00095000710551143 -0.0001748891547539117 -0.0001513582131268414 -0.0001489236735887717 -0.0002606988035733093 -8.638033592722588e-05 
-0.0007621827792122644 0.001644846595345662 -0.0007664594070913907 -0.0009054825833407996 -0.0008600448346193793 -0.0007320959235739095 
-0.0002177771380368914 -0.0002794227685064939 -0.0002086398521942479 -0.0003662558599749009 -0.0003022278283269393 0.0008866465032266108 
-0.0005847456065089438 0.0007142612427524624 -0.002541960124892522 -0.001919580305160667 -0.0003789201800523477 -0.001815296430367152 
-0.0004712656540152289 -0.0005987047207926729 -0.000370361614864493 0.000365641583744091 -0.0005700680242859334 0.001256996789616516 
-0.001227368417172955 0.002428547677829464 -0.001246165331678083 -0.001401120983922005 -0.001472311176552967 -0.001181645455234968 
-9.392607711679707e-05 -8.898315994877661e-05 -5.104248271852434e-05 -0.0001141020907367826 -7.600715263033497e-05 0.0005493423194761726 
-0.001227368417172955 0.002428547677829464 -0.001246165331678083 -0.001401120983922005 -0.001472311176552967 -0.001181645455234968 
-0.001573734388959016 -0.001935301028475004 -0.001471405537627196 -0.0007666001868441259 0.003248476800675894 -0.001466926616214504 
-0.0001595624388615405 -0.0002302987923374024 -0.0001106792799517207 0.0008459995344557746 -0.0001918330433286589 -0.0001789920330862675 
0.0007186317315954118 -0.0002459309551872264 -0.0001859201422587337 -0.0001846875295242112 -0.0002129297902674897 -0.0001752104027322128 
-0.0007621827792122644 0.001644846595345662 -0.0007664594070913907 -0.0009054825833407996 -0.0008600448346193793 -0.0007320959235739095 
-0.0002177771380368914 -0.0002794227685064939 -0.0002086398521942479 -0.0003662558599749009 -0.0003022278283269393 0.0008866465032266108 
-9.392607711679707e-05 -8.898315994877661e-05 -5.104248271852434e-05 -0.0001141020907367826 -7.600715263033497e-05 0.0005493423194761726 
-0.0009690298217623262 -0.001031412661471678 0.001486794999074605 -0.0009724115730642853 -0.001025221337072581 -0.0009165920884552435 
-9.392607711679707e-05 -8.898315994877661e-05 -5.104248271852434e-05 -0.0001141020907367826 -7.600715263033497e-05 0.0005493423194761726 
-9.392607711679707e-05 -8.898315994877661e-05 -5.104248271852434e-05 -0.0001141020907367826 -7.600715263033497e-05 0.0005493423194761726 
-0.0007621827792122644 0.001644846595345662 -0.0007664594070913907 -0.0009054825833407996 -0.0008600448346193793 -0.0007320959235739095 
-0.0009690298217623262 -0.001031412661471678 0.001486794999074605 -0.0009724115730642853 -0.001025221337072581 -0.0009165920884552435 
0.0007186317315954118 -0.0002459309551872264 -0.0001859201422587337 -0.0001846875295242112 -0.0002129297902674897 -0.0001752104027322128 
0.0007186317315954118 -0.0002459309551872264 -0.0001859201422587337 -0.0001846875295242112 -0.0002129297902674897 -0.0001752104027322128 
-9.392607711679707e-05 -8.898315994877661e-05 -5.104248271852434e-05 -0.0001141020907367826 -7.600715263033497e-05 0.0005493423194761726 
-0.0003773395768984319 -0.0005097215608438963 -0.0003193191321459686 0.0004797436744808737 -0.0004940608716555982 0.0007076544701403433 
-9.392607711679707e-05 -8.898315994877661e-05 -5.104248271852434e-05 -0.0001141020907367826 -7.600715263033497e-05 0.0005493423194761726 
-0.0009690298217623262 -0.001031412661471678 0.001486794999074605 -0.0009724115730642853 -0.001025221337072581 -0.0009165920884552435 
-0.0001129487933676933 -0.001295284976174366 0.001284394303229239 -0.00123543733738984 -0.001361927293276226 -0.0004536301049062968 
-0.0001595624388615405 -0.0002302987923374024 -0.0001106792799517207 0.0008459995344557746 -0.0001918330433286589 -0.0001789920330862675 
0.0001128184305108257 -0.0008959993561545605 0.001070905576848868 -0.000873973595321458 -0.0008294712299792685 -8.204800430581063e-05 
0.0007186317315954118 -0.0002459309551872264 -0.0001859201422587337 -0.0001846875295242112 -0.0002129297902674897 -0.0001752104027322128 
0.00095000710551143 -0.0001748891547539117 -0.0001513582131268414 -0.0001489236735887717 -0.0002606988035733093 -8.638033592722588e-05 
0.00095000710551143 -0.0001748891547539117 -0.0001513582131268414 -0.0001489236735887717 -0.0002606988035733093 -8.638033592722588e-05 
0.00095000710551143 -0.0001748891547539117 -0.0001513582131268414 -0.0001489236735887717 -0.0002606988035733093 -8.638033592722588e-05 
-0.001169540665135124 -0.001497538959527307 -0.001283893086185531 0.002567817371080659 -0.001485162497098772 -0.001237282249098944 
-0.0004348999320053597 -0.001537834059493701 0.0005580164770505362 -0.001455725664039904 0.0008519859803552072 -0.001176914384047568 
-0.0001595624388615405 -0.0002302987923374024 -0.0001106792799517207 0.0008459995344557746 -0.0001918330433286589 -0.0001789920330862675 
0.001668638837106842 -0.0004208201099411379 -0.000337278355385575 -0.0003336112031129829 -0.0004736285938407989 -0.0002615907386594386 
-0.0002177771380368914 -0.0002794227685064939 -0.0002086398521942479 -0.0003662558599749009 -0.0003022278283269393 0.0008866465032266108 
-0.001284414734432282 -0.001535269613868242 0.0005110735266675068 -0.001491929536905136 0.001294325499218968 -0.001198590443912422 
-0.0007621827792122644 0.001644846595345662 -0.0007664594070913907 -0.0009054825833407996 -0.0008600448346193793 -0.0007320959235739095 
-0.0002177771380368914 -0.0002794227685064939 -0.0002086398521942479 -0.0003662558599749009 -0.0003022278283269393 0.0008866465032266108 
0.0003412921546969799 -0.0007556525160311227 -0.0005052392744047023 0.0002950561449566625 -0.0007069906619230881 0.0005324440674081306 
0.0007186317315954118 -0.0002459309551872264 -0.0001859201422587337 -0.0001846875295242112 -0.0002129297902674897 -0.0001752104027322128 
-0.0002177771380368914 -0.0002794227685064939 -0.0002086398521942479 -0.0003662558599749009 -0.0003022278283269393 0.0008866465032266108 
-0.002443653090658793 -0.0001952894301898062 -0.001569832120966467 0.001138722326292971 -0.003978777946959665 -0.002679967741725989 
0.0007186317315954118 -0.0002459309551872264 -0.0001859201422587337 -0.0001846875295242112 -0.0002129297902674897 -0.0001752104027322128 
0.0007186317315954118 -0.0002459309551872264 -0.0001859201422587337 -0.0001846875295242112 -0.0002129297902674897 -0.0001752104027322128 
-0.0007355705167497795 -0.0008198010232366938 -0.0006149740652353803 -0.0008099562501920112 0.001529442905073805 3.81825921058794e-06 
-0.0002177771380368914 -0.0002794227685064939 -0.0002086398521942479 -0.0003662558599749009 -0.0003022278283269393 0.0008866465032266108 
0.00095000710551143 -0.0001748891547539117 -0.0001513582131268414 -0.0001489236735887717 -0.0002606988035733093 -8.638033592722588e-05 
-9.392607711679707e-05 -8.898315994877661e-05 -5.104248271852434e-05 -0.0001141020907367826 -7.600715263033497e-05 0.0005493423194761726 
-0.0003117032151536885 -0.0003684059284552705 -0.0002596823349127722 -0.0004803579507116836 -0.0003782349809572743 0.001435988822702784 
-0.0007725275104644932 -0.0009741843728496841 -0.0007967946751586191 -0.0009167455618446719 0.001834859786300412 -0.0007424105228626514 
-0.001062955898879123 -0.001120395821420454 0.001435752516356081 -0.001086513663801068 -0.001101228489702917 -0.0003672497689790709 
-0.0009690298217623262 -0.001031412661471678 0.001486794999074605 -0.0009724115730642853 -0.001025221337072581 -0.0009165920884552435 
0.00095000710551143 -0.0001748891547539117 -0.0001513582131268414 -0.0001489236735887717 -0.0002606988035733093 -8.638033592722588e-05 
-9.392607711679707e-05 -8.898315994877661e-05 -5.104248271852434e-05 -0.0001141020907367826 -7.600715263033497e-05 0.0005493423194761726 
0.00095000710551143 -0.0001748891547539117 -0.0001513582131268414 -0.0001489236735887717 -0.0002606988035733093 -8.638033592722588e-05 
-0.0009690298217623262 -0.001031412661471678 0.001486794999074605 -0.0009724115730642853 -0.001025221337072581 -0.0009165920884552435 
-9.392607711679707e-05 -8.898315994877661e-05 -5.104248271852434e-05 -0.0001141020907367826 -7.600715263033497e-05 0.0005493423194761726 
0.0002067445076276228 -0.000807016196205784 0.001121948059567392 -0.0007598715045846754 -0.0007534640773489334 -0.0006313903237819833 
-0.0001595624388615405 -0.0002302987923374024 -0.0001106792799517207 0.0008459995344557746 -0.0001918330433286589 -0.0001789920330862675 
-0.0007621827792122644 0.001644846595345662 -0.0007664594070913907 -0.0009054825833407996 -0.0008600448346193793 -0.0007320959235739095 
-0.001227368417172955 0.002428547677829464 -0.001246165331678083 -0.001401120983922005 -0.001472311176552967 -0.001181645455234968 
-0.0007621827792122644 0.001644846595345662 -0.0007664594070913907 -0.0009054825833407996 -0.0008600448346193793 -0.0007320959235739095 
-0.0002177771380368914 -0.0002794227685064939 -0.0002086398521942479 -0.0003662558599749009 -0.0003022278283269393 0.0008866465032266108 
-9.392607711679707e-05 -8.898315994877661e-05 -5.104248271852434e-05 -0.0001141020907367826 -7.600715263033497e-05 0.0005493423194761726 
-0.000511887223967789 -0.0005610852410185576 0.001307868201826126 -0.0005751839750604643 -0.0005405342870814439 -0.0004561799210497704 
-0.000511887223967789 -0.0005610852410185576 0.001307868201826126 -0.0005751839750604643 -0.0005405342870814439 -0.0004561799210497704 
-0.0006416444396329825 -0.0007308178632879172 -0.000563931582516856 -0.0006958541594552285 0.001605450057704141 -0.0005455240602655847 
0.00095000710551143 -0.0001748891547539117 -0.0001513582131268414 -0.0001489236735887717 -0.0002606988035733093 -8.638033592722588e-05 
0.000572667528612998 -0.0006846107155978079 -0.0004706773452728101 0.000330820000892102 -0.0007547596752289075 0.0006212741342131175 
0.0007186317315954118 -0.0002459309551872264 -0.0001859201422587337 -0.0001846875295242112 -0.0002129297902674897 -0.0001752104027322128 
-0.0009690298217623262 -0.001031412661471678 0.001486794999074605 -0.0009724115730642853 -0.001025221337072581 -0.0009165920884552435 
-0.0007621827792122644 0.001644846595345662 -0.0007664594070913907 -0.0009054825833407996 -0.0008600448346193793 -0.0007320959235739095 
-0.001953939121332146 -0.003584207969057632 0.001197690138918114 0.00160319559308613 -0.003579457120785099 -0.002326084308141279 
-9.392607711679707e-05 -8.898315994877661e-05 -5.104248271852434e-05 -0.0001141020907367826 -7.600715263033497e-05 0.0005493423194761726 
0.0002785574426821005 -0.0009662731881098716 0.001045830708747564 0.0001218918858065386 -0.000993066133983412 -0.0007215522900632639 
0.00095000710551143 -0.0001748891547539117 -0.0001513582131268414 -0.0001489236735887717 -0.0002606988035733093 -8.638033592722588e-05 
0.00095000710551143 -0.0001748891547539117 -0.0001513582131268414 -0.0001489236735887717 -0.0002606988035733093 -8.638033592722588e-05 
0.0001878243262991656 0.00146995744059175 -0.000917817620218232 -0.001054406256929571 -0.001120743638192688 -0.0008184762595011354 
0.0007186317315954118 -0.0002459309551872264 -0.0001859201422587337 -0.0001846875295242112 -0.0002129297902674897 -0.0001752104027322128 
0.00095000710551143 -0.0001748891547539117 -0.0001513582131268414 -0.0001489236735887717 -0.0002606988035733093 -8.638033592722588e-05 
-0.0007621827792122644 0.001644846595345662 -0.0007664594070913907 -0.0009054825833407996 -0.0008600448346193793 -0.0007320959235739095 
-0.001227368417172955 0.002428547677829464 -0.001246165331678083 -0.001401120983922005 -0.001472311176552967 -0.001181645455234968 
-0.0001595624388615405 -0.0002302987923374024 -0.0001106792799517207 0.0008459995344557746 -0.0001918330433286589 -0.0001789920330862675 
-0.001227368417172955 0.002428547677829464 -0.001246165331678083 -0.001401120983922005 -0.001472311176552967 -0.001181645455234968 
-9.392607711679707e-05 -8.898315994877661e-05 -5.104248271852434e-05 -0.0001141020907367826 -7.600715263033497e-05 0.0005493423194761726 
0.00095000710551143 -0.0001748891547539117 -0.0001513582131268414 -0.0001489236735887717 -0.0002606988035733093 -8.638033592722588e-05 
-9.392607711679707e-05 -8.898315994877661e-05 -5.104248271852434e-05 -0.0001141020907367826 -7.600715263033497e-05 0.0005493423194761726 
-9.392607711679707e-05 -8.898315994877661e-05 -5.104248271852434e-05 -0.0001141020907367826 -7.600715263033497e-05 0.0005493423194761726 
0.001668638837106842 -0.0004208201099411379 -0.000337278355385575 -0.0003336112031129829 -0.0004736285938407989 -0.0002615907386594386 
-0.001905111181884903 -0.002317339982764001 -0.001898867151420911 0.001757861120888648 4.428040797503387e-05 -0.001233463989888357 
0.0007186317315954118 -0.0002459309551872264 -0.0001859201422587337 -0.0001846875295242112 -0.0002129297902674897 -0.0001752104027322128 
0.00095000710551143 -0.0001748891547539117 -0.0001513582131268414 -0.0001489236735887717 -0.0002606988035733093 -8.638033592722588e-05 
-0.0001129487933676933 -0.001295284976174366 0.001284394303229239 -0.00123543733738984 -0.001361927293276226 -0.0004536301049062968 
-0.0004712656540152289 -0.0005987047207926729 -0.000370361614864493 0.000365641583744091 -0.0005700680242859334 0.001256996789616516 
-0.001169540665135124 -0.001497538959527307 -0.001283893086185531 0.002567817371080659 -0.001485162497098772 -0.001237282249098944 
-0.001227368417172955 0.002428547677829464 -0.001246165331678083 -0.001401120983922005 -0.001472311176552967 -0.001181645455234968 
-0.0001595624388615405 -0.0002302987923374024 -0.0001106792799517207 0.0008459995344557746 -0.0001918330433286589 -0.0001789920330862675 
0.00095000710551143 -0.0001748891547539117 -0.0001513582131268414 -0.0001489236735887717 -0.0002606988035733093 -8.638033592722588e-05 
0.0007186317315954118 -0.0002459309551872264 -0.0001859201422587337 -0.0001846875295242112 -0.0002129297902674897 -0.0001752104027322128 
-0.0007621827792122644 0.001644846595345662 -0.0007664594070913907 -0.0009054825833407996 -0.0008600448346193793 -0.0007320959235739095 
-0.0001595624388615405 -0.0002302987923374024 -0.0001106792799517207 0.0008459995344557746 -0.0001918330433286589 -0.0001789920330862675 
-0.0002177771380368914 -0.0002794227685064939 -0.0002086398521942479 -0.0003662558599749009 -0.0003022278283269393 0.0008866465032266108 
0.0007186317315954118 -0.0002459309551872264 -0.0001859201422587337 -0.0001846875295242112 -0.0002129297902674897 -0.0001752104027322128 
-0.0002177771380368914 -0.0002794227685064939 -0.0002086398521942479 -0.0003662558599749009 -0.0003022278283269393 0.0008866465032266108 
0.0007186317315954118 -0.0002459309551872264 -0.0001859201422587337 -0.0001846875295242112 -0.0002129297902674897 -0.0001752104027322128 
0.0007186317315954118 -0.0002459309551872264 -0.0001859201422587337 -0.0001846875295242112 -0.0002129297902674897 -0.0001752104027322128 
-0.0007621827792122644 0.001644846595345662 -0.0007664594070913907 -0.0009054825833407996 -0.0008600448346193793 -0.0007320959235739095 
0.0007186317315954118 -0.0002459309551872264 -0.0001859201422587337 -0.0001846875295242112 -0.0002129297902674897 -0.0001752104027322128 
0.0007186317315954118 -0.0002459309551872264 -0.0001859201422587337 -0.0001846875295242112 -0.0002129297902674897 -0.0001752104027322128 
0.0007186317315954118 -0.0002459309551872264 -0.0001859201422587337 -0.0001846875295242112 -0.0002129297902674897 -0.0001752104027322128 
-0.0002725112322292339 -0.001525583768511769 0.001173715023277519 -0.0003894378029340651 -0.001553760336604885 -0.0006326221379925643 
0.0007186317315954118 -0.0002459309551872264 -0.0001859201422587337 -0.0001846875295242112 -0.0002129297902674897 -0.0001752104027322128 
0.0007186317315954118 -0.0002459309551872264 -0.0001859201422587337 -0.0001846875295242112 -0.0002129297902674897 -0.0001752104027322128 
-9.392607711679707e-05 -8.898315994877661e-05 -5.104248271852434e-05 -0.0001141020907367826 -7.600715263033497e-05 0.0005493423194761726 
-9.392607711679707e-05 -8.898315994877661e-05 -5.104248271852434e-05 -0.0001141020907367826 -7.600715263033497e-05 0.0005493423194761726 
0.0005590692927338714 -0.0004762297475246288 -0.0002965994222104544 0.0006613120049315636 -0.0004047628335961486 -0.0003542024358184802 
-0.0008561088563290615 0.001555863435396886 -0.000817501889809915 -0.001019584674077582 -0.0009360519872497144 -0.0001827536040977369 
-0.0001595624388615405 -0.0002302987923374024 -0.0001106792799517207 0.0008459995344557746 -0.0001918330433286589 -0.0001789920330862675 
0.0006247056544786148 -0.0003349141151360029 -0.000236962624977258 -0.0002987896202609938 -0.0002889369428978245 0.0003741319167439598 
-0.0002177771380368914 -0.0002794227685064939 -0.0002086398521942479 -0.0003662558599749009 -0.0003022278283269393 0.0008866465032266108 
-0.001416883667772221 0.003388783557577318 -0.002483302084042284 -0.001975783566370703 -0.003087115686401253 -0.00129246724459576 
-0.0002177771380368914 -0.0002794227685064939 -0.0002086398521942479 -0.0003662558599749009 -0.0003022278283269393 0.0008866465032266108 
0.00095000710551143 -0.0001748891547539117 -0.0001513582131268414 -0.0001489236735887717 -0.0002606988035733093 -8.638033592722588e-05 
0.0007186317315954118 -0.0002459309551872264 -0.0001859201422587337 -0.0001846875295242112 -0.0002129297902674897 -0.0001752104027322128 
-0.0009690298217623262 -0.001031412661471678 0.001486794999074605 -0.0009724115730642853 -0.001025221337072581 -0.0009165920884552435 
0.0001217585950732866 -0.002428080630312341 -0.001940490573717074 0.002713949842448551 -0.002452851962595168 -0.0007912185176180397 
-0.000511887223967789 -0.0005610852410185576 0.001307868201826126 -0.0005751839750604643 -0.0005405342870814439 -0.0004561799210497704 
0.00095000710551143 -0.0001748891547539117 -0.0001513582131268414 -0.0001489236735887717 -0.0002606988035733093 -8.638033592722588e-05 
-0.0009690298217623262 -0.001031412661471678 0.001486794999074605 -0.0009724115730642853 -0.001025221337072581 -0.0009165920884552435 
-0.0009690298217623262 -0.001031412661471678 0.001486794999074605 -0.0009724115730642853 -0.001025221337072581 -0.0009165920884552435 
-0.0002177771380368914 -0.0002794227685064939 -0.0002086398521942479 -0.0003662558599749009 -0.0003022278283269393 0.0008866465032266108 
-9.392607711679707e-05 -8.898315994877661e-05 -5.104248271852434e-05 -0.0001141020907367826 -7.600715263033497e-05 0.0005493423194761726 
0.00095000710551143 -0.0001748891547539117 -0.0001513582131268414 -0.0001489236735887717 -0.0002606988035733093 -8.638033592722588e-05 
0.00095000710551143 -0.0001748891547539117 -0.0001513582131268414 -0.0001489236735887717 -0.0002606988035733093 -8.638033592722588e-05 
0.00095000710551143 -0.0001748891547539117 -0.0001513582131268414 -0.0001489236735887717 -0.0002606988035733093 -8.638033592722588e-05 
-0.0002177771380368914 -0.0002794227685064939 -0.0002086398521942479 -0.0003662558599749009 -0.0003022278283269393 0.0008866465032266108 
-0.000511887223967789 -0.0005610852410185576 0.001307868201826126 -0.0005751839750604643 -0.0005405342870814439 -0.0004561799210497704 
-9.392607711679707e-05 -8.898315994877661e-05 -5.104248271852434e-05 -0.0001141020907367826 -7.600715263033497e-05 0.0005493423194761726 
0.0007186317315954118 -0.0002459309551872264 -0.0001859201422587337 -0.0001846875295242112 -0.0002129297902674897 -0.0001752104027322128 
0.0007186317315954118 -0.0002459309551872264 -0.0001859201422587337 -0.0001846875295242112 -0.0002129297902674897 -0.0001752104027322128 
-0.0001595624388615405 -0.0002302987923374024 -0.0001106792799517207 0.0008459995344557746 -0.0001918330433286589 -0.0001789920330862675 
0.0007186317315954118 -0.0002459309551872264 -0.0001859201422587337 -0.0001846875295242112 -0.0002129297902674897 -0.0001752104027322128 
-0.0001595624388615405 -0.0002302987923374024 -0.0001106792799517207 0.0008459995344557746 -0.0001918330433286589 -0.0001789920330862675 
-0.000511887223967789 -0.0005610852410185576 0.001307868201826126 -0.0005751839750604643 -0.0005405342870814439 -0.0004561799210497704 
0.0007186317315954118 -0.0002459309551872264 -0.0001859201422587337 -0.0001846875295242112 -0.0002129297902674897 -0.0001752104027322128 
-9.392607711679707e-05 -8.898315994877661e-05 -5.104248271852434e-05 -0.0001141020907367826 -7.600715263033497e-05 0.0005493423194761726 
-0.0009690298217623262 -0.001031412661471678 0.001486794999074605 -0.0009724115730642853 -0.001025221337072581 -0.0009165920884552435 
-0.0002177771380368914 -0.0002794227685064939 -0.0002086398521942479 -0.0003662558599749009 -0.0003022278283269393 0.0008866465032266108 
-0.0009690298217623262 -0.001031412661471678 0.001486794999074605 -0.0009724115730642853 -0.001025221337072581 -0.0009165920884552435 
-0.0002177771380368914 -0.0002794227685064939 -0.0002086398521942479 -0.0003662558599749009 -0.0003022278283269393 0.0008866465032266108 
0.0007186317315954118 -0.0002459309551872264 -0.0001859201422587337 -0.0001846875295242112 -0.0002129297902674897 -0.0001752104027322128 
-0.001227368417172955 0.002428547677829464 -0.001246165331678083 -0.001401120983922005 -0.001472311176552967 -0.001181645455234968 
0.0007186317315954118 -0.0002459309551872264 -0.0001859201422587337 -0.0001846875295242112 -0.0002129297902674897 -0.0001752104027322128 
-0.0007621827792122644 0.001644846595345662 -0.0007664594070913907 -0.0009054825833407996 -0.0008600448346193793 -0.0007320959235739095 
-0.0009690298217623262 -0.001031412661471678 0.001486794999074605 -0.0009724115730642853 -0.001025221337072581 -0.0009165920884552435 
0.0007186317315954118 -0.0002459309551872264 -0.0001859201422587337 -0.0001846875295242112 -0.0002129297902674897 -0.0001752104027322128 
-9.392607711679707e-05 -8.898315994877661e-05 -5.104248271852434e-05 -0.0001141020907367826 -7.600715263033497e-05 0.0005493423194761726 
0.001668638837106842 -0.0004208201099411379 -0.000337278355385575 -0.0003336112031129829 -0.0004736285938407989 -0.0002615907386594386 
-0.0007725275104644932 -0.0009741843728496841 -0.0007967946751586191 -0.0009167455618446719 0.001834859786300412 -0.0007424105228626514 
-9.392607711679707e-05 -8.898315994877661e-05 -5.104248271852434e-05 -0.0001141020907367826 -7.600715263033497e-05 0.0005493423194761726 
-0.0007621827792122644 0.001644846595345662 -0.0007664594070913907 -0.0009054825833407996 -0.0008600448346193793 -0.0007320959235739095 
0.0004651432156170742 -0.0005652129074734054 -0.0003476419049289787 0.0005472099141947807 -0.0004807699862264835 0.0001951398836576923 
-0.0006416444396329825 -0.0007308178632879172 -0.000563931582516856 -0.0006958541594552285 0.001605450057704141 -0.0005455240602655847 
-0.0002534885159783376 -0.000319281952286179 -0.0001617217626702451 0.0007318974437189919 -0.0002678401959589938 0.0003703502863899051 
-9.392607711679707e-05 -8.898315994877661e-05 -5.104248271852434e-05 -0.0001141020907367826 -7.600715263033497e-05 0.0005493423194761726 
0.00095000710551143 -0.0001748891547539117 -0.0001513582131268414 -0.0001489236735887717 -0.0002606988035733093 -8.638033592722588e-05 
0.0001877819039555494 0.001688445615602146 -0.001745165449733903 -0.001002834743315996 -0.002213779966352759 -0.001072885907504501 
-0.000511887223967789 -0.0005610852410185576 0.001307868201826126 -0.0005751839750604643 -0.0005405342870814439 -0.0004561799210497704 
-9.392607711679707e-05 -8.898315994877661e-05 -5.104248271852434e-05 -0.0001141020907367826 -7.600715263033497e-05 0.0005493423194761726 
-9.392607711679707e-05 -8.898315994877661e-05 -5.104248271852434e-05 -0.0001141020907367826 -7.600715263033497e-05 0.0005493423194761726 
0.0007186317315954118 -0.0002459309551872264 -0.0001859201422587337 -0.0001846875295242112 -0.0002129297902674897 -0.0001752104027322128 
-0.0001595624388615405 -0.0002302987923374024 -0.0001106792799517207 0.0008459995344557746 -0.0001918330433286589 -0.0001789920330862675 
0.0002473660775801829 -0.0008446356759798993 -0.0005562817571232266 0.0001809540542198799 -0.000782997814553423 0.001081786386884303 
-0.0001595624388615405 -0.0002302987923374024 -0.0001106792799517207 0.0008459995344557746 -0.0001918330433286589 -0.0001789920330862675 
-0.0002177771380368914 -0.0002794227685064939 -0.0002086398521942479 -0.0003662558599749009 -0.0003022278283269393 0.0008866465032266108 
-9.392607711679707e-05 -8.898315994877661e-05 -5.104248271852434e-05 -0.0001141020907367826 -7.600715263033497e-05 0.0005493423194761726 
-0.001169540665135124 -0.001497538959527307 -0.001283893086185531 0.002567817371080659 -0.001485162497098772 -0.001237282249098944 
0.0007186317315954118 -0.0002459309551872264 -0.0001859201422587337 -0.0001846875295242112 -0.0002129297902674897 -0.0001752104027322128 
-0.0003117032151536885 -0.0003684059284552705 -0.0002596823349127722 -0.0004803579507116836 -0.0003782349809572743 0.001435988822702784 
-9.392607711679707e-05 -8.898315994877661e-05 -5.104248271852434e-05 -0.0001141020907367826 -7.600715263033497e-05 0.0005493423194761726 
0.00095000710551143 -0.0001748891547539117 -0.0001513582131268414 -0.0001489236735887717 -0.0002606988035733093 -8.638033592722588e-05 
-0.0001595624388615405 -0.0002302987923374024 -0.0001106792799517207 0.0008459995344557746 -0.0001918330433286589 -0.0001789920330862675 
0.00095000710551143 -0.0001748891547539117 -0.0001513582131268414 -0.0001489236735887717 -0.0002606988035733093 -8.638033592722588e-05 
-0.0009690298217623262 -0.001031412661471678 0.001486794999074605 -0.0009724115730642853 -0.001025221337072581 -0.0009165920884552435 
-0.0001595624388615405 -0.0002302987923374024 -0.0001106792799517207 0.0008459995344557746 -0.0001918330433286589 -0.0001789920330862675 
-9.392607711679707e-05 -8.898315994877661e-05 -5.104248271852434e-05 -0.0001141020907367826 -7.600715263033497e-05 0.0005493423194761726 
-0.0001595624388615405 -0.0002302987923374024 -0.0001106792799517207 0.0008459995344557746 -0.0001918330433286589 -0.0001789920330862675 
0.00095000710551143 -0.0001748891547539117 -0.0001513582131268414 -0.0001489236735887717 -0.0002606988035733093 -8.638033592722588e-05 
-9.392607711679707e-05 -8.898315994877661e-05 -5.104248271852434e-05 -0.0001141020907367826 -7.600715263033497e-05 0.0005493423194761726 
-0.0001595624388615405 -0.0002302987923374024 -0.0001106792799517207 0.0008459995344557746 -0.0001918330433286589 -0.0001789920330862675 
-0.001227368417172955 0.002428547677829464 -0.001246165331678083 -0.001401120983922005 -0.001472311176552967 -0.001181645455234968 
-0.0007621827792122644 0.001644846595345662 -0.0007664594070913907 -0.0009054825833407996 -0.0008600448346193793 -0.0007320959235739095 
0.00095000710551143 -0.0001748891547539117 -0.0001513582131268414 -0.0001489236735887717 -0.0002606988035733093 -8.638033592722588e-05 
-0.0001595624388615405 -0.0002302987923374024 -0.0001106792799517207 0.0008459995344557746 -0.0001918330433286589 -0.0001789920330862675 
0.0007186317315954118 -0.0002459309551872264 -0.0001859201422587337 -0.0001846875295242112 -0.0002129297902674897 -0.0001752104027322128 
0.0007186317315954118 -0.0002459309551872264 -0.0001859201422587337 -0.0001846875295242112 -0.0002129297902674897 -0.0001752104027322128 
0.0004412704199338868 0.002007727567888325 -0.001583443687063659 -0.001734732187034988 -0.001945939770393766 -0.001443236193894406 
-0.0009690298217623262 -0.001031412661471678 0.001486794999074605 -0.0009724115730642853 -0.001025221337072581 -0.0009165920884552435 
-0.0002177771380368914 -0.0002794227685064939 -0.0002086398521942479 -0.0003662558599749009 -0.0003022278283269393 0.0008866465032266108 
-0.0002177771380368914 -0.0002794227685064939 -0.0002086398521942479 -0.0003662558599749009 -0.0003022278283269393 0.0008866465032266108 
-0.0001595624388615405 -0.0002302987923374024 -0.0001106792799517207 0.0008459995344557746 -0.0001918330433286589 -0.0001789920330862675 
-0.000511887223967789 -0.0005610852410185576 0.001307868201826126 -0.0005751839750604643 -0.0005405342870814439 -0.0004561799210497704 
0.00095000710551143 -0.0001748891547539117 -0.0001513582131268414 -0.0001489236735887717 -0.0002606988035733093 -8.638033592722588e-05 
-0.0007621827792122644 0.001644846595345662 -0.0007664594070913907 -0.0009054825833407996 -0.0008600448346193793 -0.0007320959235739095 
0.00095000710551143 -0.0001748891547539117 -0.0001513582131268414 -0.0001489236735887717 -0.0002606988035733093 -8.638033592722588e-05 
-9.392607711679707e-05 -8.898315994877661e-05 -5.104248271852434e-05 -0.0001141020907367826 -7.600715263033497e-05 0.0005493423194761726 
-0.001169540665135124 -0.001497538959527307 -0.001283893086185531 0.002567817371080659 -0.001485162497098772 -0.001237282249098944 
0.00095000710551143 -0.0001748891547539117 -0.0001513582131268414 -0.0001489236735887717 -0.0002606988035733093 -8.638033592722588e-05 
-0.004034611351938286 -0.00216237510412607 0.0003481584039878965 -0.003585934178284577 0.0005204485135755498 -0.002685148046066815 
-0.001227368417172955 0.002428547677829464 -0.001246165331678083 -0.001401120983922005 -0.001472311176552967 -0.001181645455234968 
-0.0002177771380368914 -0.0002794227685064939 -0.0002086398521942479 -0.0003662558599749009 -0.0003022278283269393 0.0008866465032266108 
-0.002104971163736398 -0.003976135071211494 -0.00316633917185234 0.001171935559936078 0.001124380519046538 -0.001354600378537891 
-0.0001595624388615405 -0.0002302987923374024 -0.0001106792799517207 0.0008459995344557746 -0.0001918330433286589 -0.0001789920330862675 
0.0007186317315954118 -0.0002459309551872264 -0.0001859201422587337 -0.0001846875295242112 -0.0002129297902674897 -0.0001752104027322128 
0.0007186317315954118 -0.0002459309551872264 -0.0001859201422587337 -0.0001846875295242112 -0.0002129297902674897 -0.0001752104027322128 
-0.000511887223967789 -0.0005610852410185576 0.001307868201826126 -0.0005751839750604643 -0.0005405342870814439 -0.0004561799210497704 
0.0007186317315954118 -0.0002459309551872264 -0.0001859201422587337 -0.0001846875295242112 -0.0002129297902674897 -0.0001752104027322128 
0.00095000710551143 -0.0001748891547539117 -0.0001513582131268414 -0.0001489236735887717 -0.0002606988035733093 -8.638033592722588e-05 
0.00095000710551143 -0.0001748891547539117 -0.0001513582131268414 -0.0001489236735887717 -0.0002606988035733093 -8.638033592722588e-05 
-0.0002177771380368914 -0.0002794227685064939 -0.0002086398521942479 -0.0003662558599749009 -0.0003022278283269393 0.0008866465032266108 
-9.392607711679707e-05 -8.898315994877661e-05 -5.104248271852434e-05 -0.0001141020907367826 -7.600715263033497e-05 0.0005493423194761726 
0.00095000710551143 -0.0001748891547539117 -0.0001513582131268414 -0.0001489236735887717 -0.0002606988035733093 -8.638033592722588e-05 
0.0007186317315954118 -0.0002459309551872264 -0.0001859201422587337 -0.0001846875295242112 -0.0002129297902674897 -0.0001752104027322128 
-9.392607711679707e-05 -8.898315994877661e-05 -5.104248271852434e-05 -0.0001141020907367826 -7.600715263033497e-05 0.0005493423194761726 
0.00095000710551143 -0.0001748891547539117 -0.0001513582131268414 -0.0001489236735887717 -0.0002606988035733093 -8.638033592722588e-05 
-9.392607711679707e-05 -8.898315994877661e-05 -5.104248271852434e-05 -0.0001141020907367826 -7.600715263033497e-05 0.0005493423194761726 
0.00095000710551143 -0.0001748891547539117 -0.0001513582131268414 -0.0001489236735887717 -0.0002606988035733093 -8.638033592722588e-05 
-0.001169540665135124 -0.001497538959527307 -0.001283893086185531 0.002567817371080659 -0.001485162497098772 -0.001237282249098944 
-0.001227368417172955 0.002428547677829464 -0.001246165331678083 -0.001401120983922005 -0.001472311176552967 -0.001181645455234968 
-0.000511887223967789 -0.0005610852410185576 0.001307868201826126 -0.0005751839750604643 -0.0005405342870814439 -0.0004561799210497704 
-0.001681427889102912 -0.002058624200545865 2.397511564059527e-05 0.001992633396020195 -0.002025696784180215 -0.001693462170148715 
-0.001169540665135124 -0.001497538959527307 -0.001283893086185531 0.002567817371080659 -0.001485162497098772 -0.001237282249098944 
-9.392607711679707e-05 -8.898315994877661e-05 -5.104248271852434e-05 -0.0001141020907367826 -7.600715263033497e-05 0.0005493423194761726 
-0.000277361311661525 0.002253658523075552 -0.001397523544804925 -0.001550044657510777 -0.001733009980126276 -0.001268025791162194 
-0.001227368417172955 0.002428547677829464 -0.001246165331678083 -0.001401120983922005 -0.001472311176552967 -0.001181645455234968 
-9.392607711679707e-05 -8.898315994877661e-05 -5.104248271852434e-05 -0.0001141020907367826 -7.600715263033497e-05 0.0005493423194761726 
-9.392607711679707e-05 -8.898315994877661e-05 -5.104248271852434e-05 -0.0001141020907367826 -7.600715263033497e-05 0.0005493423194761726 
0.00095000710551143 -0.0001748891547539117 -0.0001513582131268414 -0.0001489236735887717 -0.0002606988035733093 -8.638033592722588e-05 
-0.0001595624388615405 -0.0002302987923374024 -0.0001106792799517207 0.0008459995344557746 -0.0001918330433286589 -0.0001789920330862675 
-0.0001595624388615405 -0.0002302987923374024 -0.0001106792799517207 0.0008459995344557746 -0.0001918330433286589 -0.0001789920330862675 
0.0007186317315954118 -0.0002459309551872264 -0.0001859201422587337 -0.0001846875295242112 -0.0002129297902674897 -0.0001752104027322128 
0.0007186317315954118 -0.0002459309551872264 -0.0001859201422587337 -0.0001846875295242112 -0.0002129297902674897 -0.0001752104027322128 
-0.000277361311661525 0.002253658523075552 -0.001397523544804925 -0.001550044657510777 -0.001733009980126276 -0.001268025791162194 
-9.392607711679707e-05 -8.898315994877661e-05 -5.104248271852434e-05 -0.0001141020907367826 -7.600715263033497e-05 0.0005493423194761726 
-0.0001595624388615405 -0.0002302987923374024 -0.0001106792799517207 0.0008459995344557746 -0.0001918330433286589 -0.0001789920330862675 
-0.0002177771380368914 -0.0002794227685064939 -0.0002086398521942479 -0.0003662558599749009 -0.0003022278283269393 0.0008866465032266108 
-0.0007355705167497795 -0.0008198010232366938 -0.0006149740652353803 -0.0008099562501920112 0.001529442905073805 3.81825921058794e-06 
-0.0006416444396329825 -0.0007308178632879172 -0.000563931582516856 -0.0006958541594552285 0.001605450057704141 -0.0005455240602655847 
-0.0008594215776698738 -0.001010240631794411 -0.0007725714347111039 -0.001062110019430129 0.001303222229377201 0.0003411224429610262 
0.001574712759990045 -0.0005098032698899145 -0.0003883208381040994 -0.0004477132938497655 -0.0005496357464711341 0.0002877515808167339 
-0.0003655989940227699 -0.001588521256492181 -0.001242397152330125 -0.001581791042080567 0.001243695015075648 0.0005183678971079194 
0.0003083626658784475 -0.0009057070180418288 -0.0007152897956436974 -0.0008447778330440002 0.001344751254130831 -0.0006319043961928105 
0.0004069285164417233 -0.0006143368836424969 -0.0004456024771715059 -0.0006650454802358948 -0.000591164771224764 0.001260778419970571 
-0.0001595624388615405 -0.0002302987923374024 -0.0001106792799517207 0.0008459995344557746 -0.0001918330433286589 -0.0001789920330862675 
-0.0007621827792122644 0.001644846595345662 -0.0007664594070913907 -0.0009054825833407996 -0.0008600448346193793 -0.0007320959235739095 
-0.0007621827792122644 0.001644846595345662 -0.0007664594070913907 -0.0009054825833407996 -0.0008600448346193793 -0.0007320959235739095 
-0.0003773395768984319 -0.0005097215608438963 -0.0003193191321459686 0.0004797436744808737 -0.0004940608716555982 0.0007076544701403433 
-0.0002177771380368914 -0.0002794227685064939 -0.0002086398521942479 -0.0003662558599749009 -0.0003022278283269393 0.0008866465032266108 
-9.392607711679707e-05 -8.898315994877661e-05 -5.104248271852434e-05 -0.0001141020907367826 -7.600715263033497e-05 0.0005493423194761726 
-0.001128592260623867 -0.00126171145380908 0.001376115719122884 -0.0001264120386085107 -0.00121705438040124 -0.001095584121541511 
-0.0002177771380368914 -0.0002794227685064939 -0.0002086398521942479 -0.0003662558599749009 -0.0003022278283269393 0.0008866465032266108 
0.0005008545935585204 -0.0005253537236937202 -0.0003945599944529815 -0.0005509433894991121 -0.0005151576185944291 0.000711436100494398 
-0.0001595624388615405 -0.0002302987923374024 -0.0001106792799517207 0.0008459995344557746 -0.0001918330433286589 -0.0001789920330862675 
-0.0007621827792122644 0.001644846595345662 -0.0007664594070913907 -0.0009054825833407996 -0.0008600448346193793 -0.0007320959235739095 
0.0007186317315954118 -0.0002459309551872264 -0.0001859201422587337 -0.0001846875295242112 -0.0002129297902674897 -0.0001752104027322128 
-0.000511887223967789 -0.0005610852410185576 0.001307868201826126 -0.0005751839750604643 -0.0005405342870814439 -0.0004561799210497704 
-0.001018984016531414 -0.001240539424131814 -0.0008832507146628247 -0.0002161104849743548 0.001111389186048542 0.0001621304098747586 
0.00095000710551143 -0.0001748891547539117 -0.0001513582131268414 -0.0001489236735887717 -0.0002606988035733093 -8.638033592722588e-05 
-9.392607711679707e-05 -8.898315994877661e-05 -5.104248271852434e-05 -0.0001141020907367826 -7.600715263033497e-05 0.0005493423194761726 
0.0007186317315954118 -0.0002459309551872264 -0.0001859201422587337 -0.0001846875295242112 -0.0002129297902674897 -0.0001752104027322128 
0.0007186317315954118 -0.0002459309551872264 -0.0001859201422587337 -0.0001846875295242112 -0.0002129297902674897 -0.0001752104027322128 
0.00095000710551143 -0.0001748891547539117 -0.0001513582131268414 -0.0001489236735887717 -0.0002606988035733093 -8.638033592722588e-05 
-0.0007725275104644932 -0.0009741843728496841 -0.0007967946751586191 -0.0009167455618446719 0.001834859786300412 -0.0007424105228626514 
0.00095000710551143 -0.0001748891547539117 -0.0001513582131268414 -0.0001489236735887717 -0.0002606988035733093 -8.638033592722588e-05 
-9.392607711679707e-05 -8.898315994877661e-05 -5.104248271852434e-05 -0.0001141020907367826 -7.600715263033497e-05 0.0005493423194761726 
0.0004211810963892733 -0.001801706374196389 0.0003556157812051705 -0.001718751428365459 0.0005152800241515626 -0.0007139524004986214 
0.00095000710551143 -0.0001748891547539117 -0.0001513582131268414 -0.0001489236735887717 -0.0002606988035733093 -8.638033592722588e-05 
0.00095000710551143 -0.0001748891547539117 -0.0001513582131268414 -0.0001489236735887717 -0.0002606988035733093 -8.638033592722588e-05 
0.00095000710551143 -0.0001748891547539117 -0.0001513582131268414 -0.0001489236735887717 -0.0002606988035733093 -8.638033592722588e-05 
-0.0001595624388615405 -0.0002302987923374024 -0.0001106792799517207 0.0008459995344557746 -0.0001918330433286589 -0.0001789920330862675 
-0.0002177771380368914 -0.0002794227685064939 -0.0002086398521942479 -0.0003662558599749009 -0.0003022278283269393 0.0008866465032266108 
-0.0004312353557675133 -0.001729836888880807 -0.001302033949563322 -0.0006216894168880093 0.001127869124377324 -0.0002099664554545207 
-0.002744383787982036 -0.003179020021966319 0.001459727631996676 0.0009061197322191272 -0.003126925273883132 -0.002060711939127785 
0.0007186317315954118 -0.0002459309551872264 -0.0001859201422587337 -0.0001846875295242112 -0.0002129297902674897 -0.0001752104027322128 
-9.392607711679707e-05 -8.898315994877661e-05 -5.104248271852434e-05 -0.0001141020907367826 -7.600715263033497e-05 0.0005493423194761726 
0.001509076398245301 -0.0006511189022785403 -0.0004479576353372957 0.0005123883313427918 -0.0006654616371694579 -0.0004405827717457062 
-0.0003117032151536885 -0.0003684059284552705 -0.0002596823349127722 -0.0004803579507116836 -0.0003782349809572743 0.001435988822702784 
0.0007186317315954118 -0.0002459309551872264 -0.0001859201422587337 -0.0001846875295242112 -0.0002129297902674897 -0.0001752104027322128 
-9.392607711679707e-05 -8.898315994877661e-05 -5.104248271852434e-05 -0.0001141020907367826 -7.600715263033497e-05 0.0005493423194761726 
-0.0002177771380368914 -0.0002794227685064939 -0.0002086398521942479 -0.0003662558599749009 -0.0003022278283269393 0.0008866465032266108 
-9.392607711679707e-05 -8.898315994877661e-05 -5.104248271852434e-05 -0.0001141020907367826 -7.600715263033497e-05 0.0005493423194761726 
-0.001136782889331399 0.001243417891281141 -0.002170094979516028 -0.002612154676940905 -0.000429787750749075 -0.0009269033482011674 
-9.392607711679707e-05 -8.898315994877661e-05 -5.104248271852434e-05 -0.0001141020907367826 -7.600715263033497e-05 0.0005493423194761726 
-0.0002177771380368914 -0.0002794227685064939 -0.0002086398521942479 -0.0003662558599749009 -0.0003022278283269393 0.0008866465032266108 
-0.0007621827792122644 0.001644846595345662 -0.0007664594070913907 -0.0009054825833407996 -0.0008600448346193793 -0.0007320959235739095 
-0.001329103103996664 -0.001727837751864709 -0.001394572366137252 0.003413816905536434 -0.001676995540427431 -0.001416274282185212 
-0.0003773395768984319 -0.0005097215608438963 -0.0003193191321459686 0.0004797436744808737 -0.0004940608716555982 0.0007076544701403433 
-0.0001595624388615405 -0.0002302987923374024 -0.0001106792799517207 0.0008459995344557746 -0.0001918330433286589 -0.0001789920330862675 
-0.0003117032151536885 -0.0003684059284552705 -0.0002596823349127722 -0.0004803579507116836 -0.0003782349809572743 0.001435988822702784 
-0.0001595624388615405 -0.0002302987923374024 -0.0001106792799517207 0.0008459995344557746 -0.0001918330433286589 -0.0001789920330862675 
-9.392607711679707e-05 -8.898315994877661e-05 -5.104248271852434e-05 -0.0001141020907367826 -7.600715263033497e-05 0.0005493423194761726 
0.00095000710551143 -0.0001748891547539117 -0.0001513582131268414 -0.0001489236735887717 -0.0002606988035733093 -8.638033592722588e-05 
0.0007186317315954118 -0.0002459309551872264 -0.0001859201422587337 -0.0001846875295242112 -0.0002129297902674897 -0.0001752104027322128 
0.0007186317315954118 -0.0002459309551872264 -0.0001859201422587337 -0.0001846875295242112 -0.0002129297902674897 -0.0001752104027322128 
0.0001774795950469368 -0.001149073527603596 -0.0009481528882854606 -0.001065669235433444 0.001574160982727103 -0.0008287908587898774 
0.0007186317315954118 -0.0002459309551872264 -0.0001859201422587337 -0.0001846875295242112 -0.0002129297902674897 -0.0001752104027322128 
-9.392607711679707e-05 -8.898315994877661e-05 -5.104248271852434e-05 -0.0001141020907367826 -7.600715263033497e-05 0.0005493423194761726 
0.0007186317315954118 -0.0002459309551872264 -0.0001859201422587337 -0.0001846875295242112 -0.0002129297902674897 -0.0001752104027322128 
-0.001227368417172955 0.002428547677829464 -0.001246165331678083 -0.001401120983922005 -0.001472311176552967 -0.001181645455234968 
-0.0009690298217623262 -0.001031412661471678 0.001486794999074605 -0.0009724115730642853 -0.001025221337072581 -0.0009165920884552435 
0.0001774795950469368 -0.001149073527603596 -0.0009481528882854606 -0.001065669235433444 0.001574160982727103 -0.0008287908587898774 
0.00095000710551143 -0.0001748891547539117 -0.0001513582131268414 -0.0001489236735887717 -0.0002606988035733093 -8.638033592722588e-05 
-0.0007725275104644932 -0.0009741843728496841 -0.0007967946751586191 -0.0009167455618446719 0.001834859786300412 -0.0007424105228626514 
-9.392607711679707e-05 -8.898315994877661e-05 -5.104248271852434e-05 -0.0001141020907367826 -7.600715263033497e-05 0.0005493423194761726 
-0.0001595624388615405 -0.0002302987923374024 -0.0001106792799517207 0.0008459995344557746 -0.0001918330433286589 -0.0001789920330862675 
-0.0003773395768984319 -0.0005097215608438963 -0.0003193191321459686 0.0004797436744808737 -0.0004940608716555982 0.0007076544701403433 
0.00095000710551143 -0.0001748891547539117 -0.0001513582131268414 -0.0001489236735887717 -0.0002606988035733093 -8.638033592722588e-05 
0.00095000710551143 -0.0001748891547539117 -0.0001513582131268414 -0.0001489236735887717 -0.0002606988035733093 -8.638033592722588e-05 
-0.000511887223967789 -0.0005610852410185576 0.001307868201826126 -0.0005751839750604643 -0.0005405342870814439 -0.0004561799210497704 
0.00095000710551143 -0.0001748891547539117 -0.0001513582131268414 -0.0001489236735887717 -0.0002606988035733093 -8.638033592722588e-05 
0.00095000710551143 -0.0001748891547539117 -0.0001513582131268414 -0.0001489236735887717 -0.0002606988035733093 -8.638033592722588e-05 
-9.392607711679707e-05 -8.898315994877661e-05 -5.104248271852434e-05 -0.0001141020907367826 -7.600715263033497e-05 0.0005493423194761726 
0.000856081028394633 -0.0002638723147026882 -0.0002024006958453657 -0.0002630257643255544 -0.0003367059562036442 0.0004629619835489467 
-0.0001595624388615405 -0.0002302987923374024 -0.0001106792799517207 0.0008459995344557746 -0.0001918330433286589 -0.0001789920330862675 
-9.392607711679707e-05 -8.898315994877661e-05 -5.104248271852434e-05 -0.0001141020907367826 -7.600715263033497e-05 0.0005493423194761726 
-0.0006416444396329825 -0.0007308178632879172 -0.000563931582516856 -0.0006958541594552285 0.001605450057704141 -0.0005455240602655847 
-0.001457722997714329 -0.0003060865959791654 -0.002313105807025599 -0.002702769834164911 0.002367335219117684 -0.002195240909434358 
0.0007186317315954118 -0.0002459309551872264 -0.0001859201422587337 -0.0001846875295242112 -0.0002129297902674897 -0.0001752104027322128 
-0.0002177771380368914 -0.0002794227685064939 -0.0002086398521942479 -0.0003662558599749009 -0.0003022278283269393 0.0008866465032266108 
0.0007186317315954118 -0.0002459309551872264 -0.0001859201422587337 -0.0001846875295242112 -0.0002129297902674897 -0.0001752104027322128 
-9.392607711679707e-05 -8.898315994877661e-05 -5.104248271852434e-05 -0.0001141020907367826 -7.600715263033497e-05 0.0005493423194761726 
-9.392607711679707e-05 -8.898315994877661e-05 -5.104248271852434e-05 -0.0001141020907367826 -7.600715263033497e-05 0.0005493423194761726 
0.0003412921546969799 -0.0007556525160311227 -0.0005052392744047023 0.0002950561449566625 -0.0007069906619230881 0.0005324440674081306 
-9.392607711679707e-05 -8.898315994877661e-05 -5.104248271852434e-05 -0.0001141020907367826 -7.600715263033497e-05 0.0005493423194761726 
-0.0007725275104644932 -0.0009741843728496841 -0.0007967946751586191 -0.0009167455618446719 0.001834859786300412 -0.0007424105228626514 
-0.001811185104768106 -0.002228356822815224 -0.001847824668702387 0.001871963211625431 0.0001202875606053689 -0.001782806309364529 
-0.0002177771380368914 -0.0002794227685064939 -0.0002086398521942479 -0.0003662558599749009 -0.0003022278283269393 0.0008866465032266108 
0.0007186317315954118 -0.0002459309551872264 -0.0001859201422587337 -0.0001846875295242112 -0.0002129297902674897 -0.0001752104027322128 
-9.392607711679707e-05 -8.898315994877661e-05 -5.104248271852434e-05 -0.0001141020907367826 -7.600715263033497e-05 0.0005493423194761726 
-9.392607711679707e-05 -8.898315994877661e-05 -5.104248271852434e-05 -0.0001141020907367826 -7.600715263033497e-05 0.0005493423194761726 
-0.0009690298217623262 -0.001031412661471678 0.001486794999074605 -0.0009724115730642853 -0.001025221337072581 -0.0009165920884552435 
0.0005590692927338714 -0.0004762297475246288 -0.0002965994222104544 0.0006613120049315636 -0.0004047628335961486 -0.0003542024358184802 
-0.0001595624388615405 -0.0002302987923374024 -0.0001106792799517207 0.0008459995344557746 -0.0001918330433286589 -0.0001789920330862675 
0.00095000710551143 -0.0001748891547539117 -0.0001513582131268414 -0.0001489236735887717 -0.0002606988035733093 -8.638033592722588e-05 
-0.0001595624388615405 -0.0002302987923374024 -0.0001106792799517207 0.0008459995344557746 -0.0001918330433286589 -0.0001789920330862675 
-9.392607711679707e-05 -8.898315994877661e-05 -5.104248271852434e-05 -0.0001141020907367826 -7.600715263033497e-05 0.0005493423194761726 
-0.000511887223967789 -0.0005610852410185576 0.001307868201826126 -0.0005751839750604643 -0.0005405342870814439 -0.0004561799210497704 
-9.392607711679707e-05 -8.898315994877661e-05 -5.104248271852434e-05 -0.0001141020907367826 -7.600715263033497e-05 0.0005493423194761726 
0.0007186317315954118 -0.0002459309551872264 -0.0001859201422587337 -0.0001846875295242112 -0.0002129297902674897 -0.0001752104027322128 
-0.001169540665135124 -0.001497538959527307 -0.001283893086185531 0.002567817371080659 -0.001485162497098772 -0.001237282249098944 
-0.0001595624388615405 -0.0002302987923374024 -0.0001106792799517207 0.0008459995344557746 -0.0001918330433286589 -0.0001789920330862675 
-0.0001595624388615405 -0.0002302987923374024 -0.0001106792799517207 0.0008459995344557746 -0.0001918330433286589 -0.0001789920330862675 
0.0007186317315954118 -0.0002459309551872264 -0.0001859201422587337 -0.0001846875295242112 -0.0002129297902674897 -0.0001752104027322128 
-0.0002177771380368914 -0.0002794227685064939 -0.0002086398521942479 -0.0003662558599749009 -0.0003022278283269393 0.0008866465032266108 
-9.392607711679707e-05 -8.898315994877661e-05 -5.104248271852434e-05 -0.0001141020907367826 -7.600715263033497e-05 0.0005493423194761726 
-0.0002177771380368914 -0.0002794227685064939 -0.0002086398521942479 -0.0003662558599749009 -0.0003022278283269393 0.0008866465032266108 
0.00095000710551143 -0.0001748891547539117 -0.0001513582131268414 -0.0001489236735887717 -0.0002606988035733093 -8.638033592722588e-05 
-0.0002177771380368914 -0.0002794227685064939 -0.0002086398521942479 -0.0003662558599749009 -0.0003022278283269393 0.0008866465032266108 
-0.001445145555209846 0.00214912490932297 -0.001454805183872332 -0.001767376843896905 -0.001774539004879906 -0.0002949989520083568 
-0.001539071632326644 0.002060141749374193 -0.001505847666590856 -0.001881478934633687 -0.001850546157510242 0.0002543433674678159 
-0.0003712873887783221 0.002164675363126776 -0.001448566027523449 -0.001664146748247559 -0.001809017132756611 -0.0007186834716860209 
0.00095000710551143 -0.0001748891547539117 -0.0001513582131268414 -0.0001489236735887717 -0.0002606988035733093 -8.638033592722588e-05 
0.0007186317315954118 -0.0002459309551872264 -0.0001859201422587337 -0.0001846875295242112 -0.0002129297902674897 -0.0001752104027322128 
-0.0002177771380368914 -0.0002794227685064939 -0.0002086398521942479 -0.0003662558599749009 -0.0003022278283269393 0.0008866465032266108 
-9.392607711679707e-05 -8.898315994877661e-05 -5.104248271852434e-05 -0.0001141020907367826 -7.600715263033497e-05 0.0005493423194761726 
-0.001227368417172955 0.002428547677829464 -0.001246165331678083 -0.001401120983922005 -0.001472311176552967 -0.001181645455234968 
-0.0003773395768984319 -0.0005097215608438963 -0.0003193191321459686 0.0004797436744808737 -0.0004940608716555982 0.0007076544701403433 
-0.0009690298217623262 -0.001031412661471678 0.001486794999074605 -0.0009724115730642853 -0.001025221337072581 -0.0009165920884552435 
-0.0009690298217623262 -0.001031412661471678 0.001486794999074605 -0.0009724115730642853 -0.001025221337072581 -0.0009165920884552435 
-0.001404256588326383 -0.002842693706457721 -0.002293427145873892 0.001206917731389536 -0.0004708772106193952 -0.0005220278893939581 
-0.0004840547060112996 -0.003078149031279675 -0.0006836648546094728 0.002024663776651303 -0.003069393402306947 -0.0006980561191916374 
0.0007904446666498895 -0.000405187947091314 -0.000262037493078562 0.0006970758608670029 -0.0004525318469019682 -0.0002653723690134933 
0.0007186317315954118 -0.0002459309551872264 -0.0001859201422587337 -0.0001846875295242112 -0.0002129297902674897 -0.0001752104027322128 
0.0007186317315954118 -0.0002459309551872264 -0.0001859201422587337 -0.0001846875295242112 -0.0002129297902674897 -0.0001752104027322128 
0.0007186317315954118 -0.0002459309551872264 -0.0001859201422587337 -0.0001846875295242112 -0.0002129297902674897 -0.0001752104027322128 
-0.0001595624388615405 -0.0002302987923374024 -0.0001106792799517207 0.0008459995344557746 -0.0001918330433286589 -0.0001789920330862675 
0.00095000710551143 -0.0001748891547539117 -0.0001513582131268414 -0.0001489236735887717 -0.0002606988035733093 -8.638033592722588e-05 
-9.392607711679707e-05 -8.898315994877661e-05 -5.104248271852434e-05 -0.0001141020907367826 -7.600715263033497e-05 0.0005493423194761726 
-0.0007725275104644932 -0.0009741843728496841 -0.0007967946751586191 -0.0009167455618446719 0.001834859786300412 -0.0007424105228626514 
0.00095000710551143 -0.0001748891547539117 -0.0001513582131268414 -0.0001489236735887717 -0.0002606988035733093 -8.638033592722588e-05 
-0.0001595624388615405 -0.0002302987923374024 -0.0001106792799517207 0.0008459995344557746 -0.0001918330433286589 -0.0001789920330862675 
-0.0001595624388615405 -0.0002302987923374024 -0.0001106792799517207 0.0008459995344557746 -0.0001918330433286589 -0.0001789920330862675 
0.0005590692927338714 -0.0004762297475246288 -0.0002965994222104544 0.0006613120049315636 -0.0004047628335961486 -0.0003542024358184802 
-0.000511887223967789 -0.0005610852410185576 0.001307868201826126 -0.0005751839750604643 -0.0005405342870814439 -0.0004561799210497704 
-0.000511887223967789 -0.0005610852410185576 0.001307868201826126 -0.0005751839750604643 -0.0005405342870814439 -0.0004561799210497704 
0.000736548887780808 -0.001625303275128225 -0.001244752310495915 -0.0004043572305018801 0.001169398149130954 -0.001182993294608357 
-0.001153531663600772 -0.001291903104306475 0.00074393661930927 -0.001271038134515693 0.001064915770622697 -0.001001703981315355 
-0.000511887223967789 -0.0005610852410185576 0.001307868201826126 -0.0005751839750604643 -0.0005405342870814439 -0.0004561799210497704 
7.698729196242932e-05 -0.0009767488184751435 -0.0007498517247755898 -0.0008805416889794398 0.001392520267436651 -0.0007207344629977974 
0.0007152911823201708 -0.001520043901684326 -0.001160892272815203 -0.001509823313279895 0.0007535864829060672 0.0006288740237777601 
-9.392607711679707e-05 -8.898315994877661e-05 -5.104248271852434e-05 -0.0001141020907367826 -7.600715263033497e-05 0.0005493423194761726 
-0.001227368417172955 0.002428547677829464 -0.001246165331678083 -0.001401120983922005 -0.001472311176552967 -0.001181645455234968 
-9.392607711679707e-05 -8.898315994877661e-05 -5.104248271852434e-05 -0.0001141020907367826 -7.600715263033497e-05 0.0005493423194761726 
-0.000511887223967789 -0.0005610852410185576 0.001307868201826126 -0.0005751839750604643 -0.0005405342870814439 -0.0004561799210497704 
-9.392607711679707e-05 -8.898315994877661e-05 -5.104248271852434e-05 -0.0001141020907367826 -7.600715263033497e-05 0.0005493423194761726 
-0.000511887223967789 -0.0005610852410185576 0.001307868201826126 -0.0005751839750604643 -0.0005405342870814439 -0.0004561799210497704 
-0.0002177771380368914 -0.0002794227685064939 -0.0002086398521942479 -0.0003662558599749009 -0.0003022278283269393 0.0008866465032266108 
-0.001227368417172955 0.002428547677829464 -0.001246165331678083 -0.001401120983922005 -0.001472311176552967 -0.001181645455234968 
0.00095000710551143 -0.0001748891547539117 -0.0001513582131268414 -0.0001489236735887717 -0.0002606988035733093 -8.638033592722588e-05 
-0.001169540665135124 -0.001497538959527307 -0.001283893086185531 0.002567817371080659 -0.001485162497098772 -0.001237282249098944 
0.00095000710551143 -0.0001748891547539117 -0.0001513582131268414 -0.0001489236735887717 -0.0002606988035733093 -8.638033592722588e-05 
-0.001153531663600772 -0.001291903104306475 0.00074393661930927 -0.001271038134515693 0.001064915770622697 -0.001001703981315355 
0.0005590692927338714 -0.0004762297475246288 -0.0002965994222104544 0.0006613120049315636 -0.0004047628335961486 -0.0003542024358184802 
-9.392607711679707e-05 -8.898315994877661e-05 -5.104248271852434e-05 -0.0001141020907367826 -7.600715263033497e-05 0.0005493423194761726 
-0.0009690298217623262 -0.001031412661471678 0.001486794999074605 -0.0009724115730642853 -0.001025221337072581 -0.0009165920884552435 
-0.0009690298217623262 -0.001031412661471678 0.001486794999074605 -0.0009724115730642853 -0.001025221337072581 -0.0009165920884552435 
-0.0002177771380368914 -0.0002794227685064939 -0.0002086398521942479 -0.0003662558599749009 -0.0003022278283269393 0.0008866465032266108 
-0.0002177771380368914 -0.0002794227685064939 -0.0002086398521942479 -0.0003662558599749009 -0.0003022278283269393 0.0008866465032266108 
-0.0002177771380368914 -0.0002794227685064939 -0.0002086398521942479 -0.0003662558599749009 -0.0003022278283269393 0.0008866465032266108 
-0.0007725275104644932 -0.0009741843728496841 -0.0007967946751586191 -0.0009167455618446719 0.001834859786300412 -0.0007424105228626514 
8.355351793013967e-05 -0.001238056687552372 -0.0009991953710039845 -0.001179771326170226 0.001498153830096767 -0.0002794485393137048 
-0.0006416444396329825 -0.0007308178632879172 -0.000563931582516856 -0.0006958541594552285 0.001605450057704141 -0.0005455240602655847 
0.000438119881543641 -0.0007359743957724691 0.001156509988699285 -0.000724107648649236 -0.0008012330906547532 -0.0005425602569769964 
0.0007186317315954118 -0.0002459309551872264 -0.0001859201422587337 -0.0001846875295242112 -0.0002129297902674897 -0.0001752104027322128 
-0.001169540665135124 -0.001497538959527307 -0.001283893086185531 0.002567817371080659 -0.001485162497098772 -0.001237282249098944 
-0.0001595624388615405 -0.0002302987923374024 -0.0001106792799517207 0.0008459995344557746 -0.0001918330433286589 -0.0001789920330862675 
-0.0006416444396329825 -0.0007308178632879172 -0.000563931582516856 -0.0006958541594552285 0.001605450057704141 -0.0005455240602655847 
-9.392607711679707e-05 -8.898315994877661e-05 -5.104248271852434e-05 -0.0001141020907367826 -7.600715263033497e-05 0.0005493423194761726 
-9.392607711679707e-05 -8.898315994877661e-05 -5.104248271852434e-05 -0.0001141020907367826 -7.600715263033497e-05 0.0005493423194761726 
-0.0007621827792122644 0.001644846595345662 -0.0007664594070913907 -0.0009054825833407996 -0.0008600448346193793 -0.0007320959235739095 
-9.392607711679707e-05 -8.898315994877661e-05 -5.104248271852434e-05 -0.0001141020907367826 -7.600715263033497e-05 0.0005493423194761726 
-9.392607711679707e-05 -8.898315994877661e-05 -5.104248271852434e-05 -0.0001141020907367826 -7.600715263033497e-05 0.0005493423194761726 
-0.0002177771380368914 -0.0002794227685064939 -0.0002086398521942479 -0.0003662558599749009 -0.0003022278283269393 0.0008866465032266108 
-9.392607711679707e-05 -8.898315994877661e-05 -5.104248271852434e-05 -0.0001141020907367826 -7.600715263033497e-05 0.0005493423194761726 
-0.0007725275104644932 -0.0009741843728496841 -0.0007967946751586191 -0.0009167455618446719 0.001834859786300412 -0.0007424105228626514 
-0.0008235904391214775 -0.0009294911694738279 0.001048185866913354 -0.001055541925772147 -0.0009187692680387181 0.0009798089016530131 
0.0007186317315954118 -0.0002459309551872264 -0.0001859201422587337 -0.0001846875295242112 -0.0002129297902674897 -0.0001752104027322128 
-0.0007621827792122644 0.001644846595345662 -0.0007664594070913907 -0.0009054825833407996 -0.0008600448346193793 -0.0007320959235739095 
-0.000511887223967789 -0.0005610852410185576 0.001307868201826126 -0.0005751839750604643 -0.0005405342870814439 -0.0004561799210497704 
-0.0007725275104644932 -0.0009741843728496841 -0.0007967946751586191 -0.0009167455618446719 0.001834859786300412 -0.0007424105228626514 
0.00095000710551143 -0.0001748891547539117 -0.0001513582131268414 -0.0001489236735887717 -0.0002606988035733093 -8.638033592722588e-05 
-0.000511887223967789 -0.0005610852410185576 0.001307868201826126 -0.0005751839750604643 -0.0005405342870814439 -0.0004561799210497704 
0.0007186317315954118 -0.0002459309551872264 -0.0001859201422587337 -0.0001846875295242112 -0.0002129297902674897 -0.0001752104027322128 
-0.001227368417172955 0.002428547677829464 -0.001246165331678083 -0.001401120983922005 -0.001472311176552967 -0.001181645455234968 
0.0007186317315954118 -0.0002459309551872264 -0.0001859201422587337 -0.0001846875295242112 -0.0002129297902674897 -0.0001752104027322128 
-9.392607711679707e-05 -8.898315994877661e-05 -5.104248271852434e-05 -0.0001141020907367826 -7.600715263033497e-05 0.0005493423194761726 
-0.000511887223967789 -0.0005610852410185576 0.001307868201826126 -0.0005751839750604643 -0.0005405342870814439 -0.0004561799210497704 
-0.002718237187358871 0.000787781965285156 -0.002773122764868891 -0.00446235688299206 -0.0004762770723759695 -0.002662449832029805 
0.00095000710551143 -0.0001748891547539117 -0.0001513582131268414 -0.0001489236735887717 -0.0002606988035733093 -8.638033592722588e-05 
-9.392607711679707e-05 -8.898315994877661e-05 -5.104248271852434e-05 -0.0001141020907367826 -7.600715263033497e-05 0.0005493423194761726 
0.0007186317315954118 -0.0002459309551872264 -0.0001859201422587337 -0.0001846875295242112 -0.0002129297902674897 -0.0001752104027322128 
-0.0002177771380368914 -0.0002794227685064939 -0.0002086398521942479 -0.0003662558599749009 -0.0003022278283269393 0.0008866465032266108 
-9.392607711679707e-05 -8.898315994877661e-05 -5.104248271852434e-05 -0.0001141020907367826 -7.600715263033497e-05 0.0005493423194761726 
-9.392607711679707e-05 -8.898315994877661e-05 -5.104248271852434e-05 -0.0001141020907367826 -7.600715263033497e-05 0.0005493423194761726 
-0.0003773395768984319 -0.0005097215608438963 -0.0003193191321459686 0.0004797436744808737 -0.0004940608716555982 0.0007076544701403433 
0.00095000710551143 -0.0001748891547539117 -0.0001513582131268414 -0.0001489236735887717 -0.0002606988035733093 -8.638033592722588e-05 
-0.001227368417172955 0.002428547677829464 -0.001246165331678083 -0.001401120983922005 -0.001472311176552967 -0.001181645455234968 
-0.0007725275104644932 -0.0009741843728496841 -0.0007967946751586191 -0.0009167455618446719 0.001834859786300412 -0.0007424105228626514 
-9.392607711679707e-05 -8.898315994877661e-05 -5.104248271852434e-05 -0.0001141020907367826 -7.600715263033497e-05 0.0005493423194761726 
-0.0006416444396329825 -0.0007308178632879172 -0.000563931582516856 -0.0006958541594552285 0.001605450057704141 -0.0005455240602655847 
0.0007186317315954118 -0.0002459309551872264 -0.0001859201422587337 -0.0001846875295242112 -0.0002129297902674897 -0.0001752104027322128 
-0.0007621827792122644 0.001644846595345662 -0.0007664594070913907 -0.0009054825833407996 -0.0008600448346193793 -0.0007320959235739095 
-0.0009690298217623262 -0.001031412661471678 0.001486794999074605 -0.0009724115730642853 -0.001025221337072581 -0.0009165920884552435 
-9.392607711679707e-05 -8.898315994877661e-05 -5.104248271852434e-05 -0.0001141020907367826 -7.600715263033497e-05 0.0005493423194761726 
0.000856081028394633 -0.0002638723147026882 -0.0002024006958453657 -0.0002630257643255544 -0.0003367059562036442 0.0004629619835489467 
-0.0001478218559858785 -0.001309098487985687 -0.001033757300135877 -0.001215535182105666 0.001545922843402587 -0.0003682786061186915 
-9.392607711679707e-05 -8.898315994877661e-05 -5.104248271852434e-05 -0.0001141020907367826 -7.600715263033497e-05 0.0005493423194761726 
0.0007186317315954118 -0.0002459309551872264 -0.0001859201422587337 -0.0001846875295242112 -0.0002129297902674897 -0.0001752104027322128 
-9.392607711679707e-05 -8.898315994877661e-05 -5.104248271852434e-05 -0.0001141020907367826 -7.600715263033497e-05 0.0005493423194761726 
0.00095000710551143 -0.0001748891547539117 -0.0001513582131268414 -0.0001489236735887717 -0.0002606988035733093 -8.638033592722588e-05 
-0.000511887223967789 -0.0005610852410185576 0.001307868201826126 -0.0005751839750604643 -0.0005405342870814439 -0.0004561799210497704 
-0.0007621827792122644 0.001644846595345662 -0.0007664594070913907 -0.0009054825833407996 -0.0008600448346193793 -0.0007320959235739095 
-9.392607711679707e-05 -8.898315994877661e-05 -5.104248271852434e-05 -0.0001141020907367826 -7.600715263033497e-05 0.0005493423194761726 
-0.001227368417172955 0.002428547677829464 -0.001246165331678083 -0.001401120983922005 -0.001472311176552967 -0.001181645455234968 
-0.0007621827792122644 0.001644846595345662 -0.0007664594070913907 -0.0009054825833407996 -0.0008600448346193793 -0.0007320959235739095 
0.0007186317315954118 -0.0002459309551872264 -0.0001859201422587337 -0.0001846875295242112 -0.0002129297902674897 -0.0001752104027322128 
-0.001169540665135124 -0.001497538959527307 -0.001283893086185531 0.002567817371080659 -0.001485162497098772 -0.001237282249098944 
-0.0009799599172491558 0.001365423826839168 -0.0009750992592856387 -0.0012717384433157 -0.001162272662946319 0.0001545505796527013 
-0.0001595624388615405 -0.0002302987923374024 -0.0001106792799517207 0.0008459995344557746 -0.0001918330433286589 -0.0001789920330862675 
0.0007186317315954118 -0.0002459309551872264 -0.0001859201422587337 -0.0001846875295242112 -0.0002129297902674897 -0.0001752104027322128 
-9.392607711679707e-05 -8.898315994877661e-05 -5.104248271852434e-05 -0.0001141020907367826 -7.600715263033497e-05 0.0005493423194761726 
-0.0001595624388615405 -0.0002302987923374024 -0.0001106792799517207 0.0008459995344557746 -0.0001918330433286589 -0.0001789920330862675 
-0.0009690298217623262 -0.001031412661471678 0.001486794999074605 -0.0009724115730642853 -0.001025221337072581 -0.0009165920884552435 
-9.392607711679707e-05 -8.898315994877661e-05 -5.104248271852434e-05 -0.0001141020907367826 -7.600715263033497e-05 0.0005493423194761726 
0.00095000710551143 -0.0001748891547539117 -0.0001513582131268414 -0.0001489236735887717 -0.0002606988035733093 -8.638033592722588e-05 
-0.001227368417172955 0.002428547677829464 -0.001246165331678083 -0.001401120983922005 -0.001472311176552967 -0.001181645455234968 
0.00095000710551143 -0.0001748891547539117 -0.0001513582131268414 -0.0001489236735887717 -0.0002606988035733093 -8.638033592722588e-05 
0.0007186317315954118 -0.0002459309551872264 -0.0001859201422587337 -0.0001846875295242112 -0.0002129297902674897 -0.0001752104027322128 
0.0007186317315954118 -0.0002459309551872264 -0.0001859201422587337 -0.0001846875295242112 -0.0002129297902674897 -0.0001752104027322128 
-0.0007725275104644932 -0.0009741843728496841 -0.0007967946751586191 -0.0009167455618446719 0.001834859786300412 -0.0007424105228626514 
0.0007186317315954118 -0.0002459309551872264 -0.0001859201422587337 -0.0001846875295242112 -0.0002129297902674897 -0.0001752104027322128 
-9.392607711679707e-05 -8.898315994877661e-05 -5.104248271852434e-05 -0.0001141020907367826 -7.600715263033497e-05 0.0005493423194761726 
-9.392607711679707e-05 -8.898315994877661e-05 -5.104248271852434e-05 -0.0001141020907367826 -7.600715263033497e-05 0.0005493423194761726 
-0.001153531663600772 -0.001291903104306475 0.00074393661930927 -0.001271038134515693 0.001064915770622697 -0.001001703981315355 
-9.392607711679707e-05 -8.898315994877661e-05 -5.104248271852434e-05 -0.0001141020907367826 -7.600715263033497e-05 0.0005493423194761726 
0.000438119881543641 -0.0007359743957724691 0.001156509988699285 -0.000724107648649236 -0.0008012330906547532 -0.0005425602569769964 
-0.001227368417172955 0.002428547677829464 -0.001246165331678083 -0.001401120983922005 -0.001472311176552967 -0.001181645455234968 
0.00095000710551143 -0.0001748891547539117 -0.0001513582131268414 -0.0001489236735887717 -0.0002606988035733093 -8.638033592722588e-05 
-0.0007621827792122644 0.001644846595345662 -0.0007664594070913907 -0.0009054825833407996 -0.0008600448346193793 -0.0007320959235739095 
0.0007186317315954118 -0.0002459309551872264 -0.0001859201422587337 -0.0001846875295242112 -0.0002129297902674897 -0.0001752104027322128 
-0.0001595624388615405 -0.0002302987923374024 -0.0001106792799517207 0.0008459995344557746 -0.0001918330433286589 -0.0001789920330862675 
0.0007186317315954118 -0.0002459309551872264 -0.0001859201422587337 -0.0001846875295242112 -0.0002129297902674897 -0.0001752104027322128 
-0.000511887223967789 -0.0005610852410185576 0.001307868201826126 -0.0005751839750604643 -0.0005405342870814439 -0.0004561799210497704 
-9.392607711679707e-05 -8.898315994877661e-05 -5.104248271852434e-05 -0.0001141020907367826 -7.600715263033497e-05 0.0005493423194761726 
-0.0009690298217623262 -0.001031412661471678 0.001486794999074605 -0.0009724115730642853 -0.001025221337072581 -0.0009165920884552435 
-0.0001595624388615405 -0.0002302987923374024 -0.0001106792799517207 0.0008459995344557746 -0.0001918330433286589 -0.0001789920330862675 
-0.001227368417172955 0.002428547677829464 -0.001246165331678083 -0.001401120983922005 -0.001472311176552967 -0.001181645455234968 
-0.0002177771380368914 -0.0002794227685064939 -0.0002086398521942479 -0.0003662558599749009 -0.0003022278283269393 0.0008866465032266108 
-9.392607711679707e-05 -8.898315994877661e-05 -5.104248271852434e-05 -0.0001141020907367826 -7.600715263033497e-05 0.0005493423194761726 
-0.0009690298217623262 -0.001031412661471678 0.001486794999074605 -0.0009724115730642853 -0.001025221337072581 -0.0009165920884552435 
-0.000511887223967789 -0.0005610852410185576 0.001307868201826126 -0.0005751839750604643 -0.0005405342870814439 -0.0004561799210497704 
0.001026994397473859 -0.001151637973229055 -0.000901209937902431 -0.001029465362568212 0.001131821463863342 -0.0008071147989250233 
-9.392607711679707e-05 -8.898315994877661e-05 -5.104248271852434e-05 -0.0001141020907367826 -7.600715263033497e-05 0.0005493423194761726 
-0.0007621827792122644 0.001644846595345662 -0.0007664594070913907 -0.0009054825833407996 -0.0008600448346193793 -0.0007320959235739095 
-0.0002177771380368914 -0.0002794227685064939 -0.0002086398521942479 -0.0003662558599749009 -0.0003022278283269393 0.0008866465032266108 
-0.0001595624388615405 -0.0002302987923374024 -0.0001106792799517207 0.0008459995344557746 -0.0001918330433286589 -0.0001789920330862675 
-0.001227368417172955 0.002428547677829464 -0.001246165331678083 -0.001401120983922005 -0.001472311176552967 -0.001181645455234968 
0.00095000710551143 -0.0001748891547539117 -0.0001513582131268414 -0.0001489236735887717 -0.0002606988035733093 -8.638033592722588e-05 
-0.0006416444396329825 -0.0007308178632879172 -0.000563931582516856 -0.0006958541594552285 0.001605450057704141 -0.0005455240602655847 
-0.001752529850057266 0.0006097276289998804 -0.002599241763959929 -0.002136912491546795 -0.0004204492048059779 -0.0008422695912133155 
-0.0007725275104644932 -0.0009741843728496841 -0.0007967946751586191 -0.0009167455618446719 0.001834859786300412 -0.0007424105228626514 
-9.392607711679707e-05 -8.898315994877661e-05 -5.104248271852434e-05 -0.0001141020907367826 -7.600715263033497e-05 0.0005493423194761726 
-9.392607711679707e-05 -8.898315994877661e-05 -5.104248271852434e-05 -0.0001141020907367826 -7.600715263033497e-05 0.0005493423194761726 
-0.0001595624388615405 -0.0002302987923374024 -0.0001106792799517207 0.0008459995344557746 -0.0001918330433286589 -0.0001789920330862675 
0.0007186317315954118 -0.0002459309551872264 -0.0001859201422587337 -0.0001846875295242112 -0.0002129297902674897 -0.0001752104027322128 
-0.0006416444396329825 -0.0007308178632879172 -0.000563931582516856 -0.0006958541594552285 0.001605450057704141 -0.0005455240602655847 
-0.0001595624388615405 -0.0002302987923374024 -0.0001106792799517207 0.0008459995344557746 -0.0001918330433286589 -0.0001789920330862675 
-9.392607711679707e-05 -8.898315994877661e-05 -5.104248271852434e-05 -0.0001141020907367826 -7.600715263033497e-05 0.0005493423194761726 
-0.000511887223967789 -0.0005610852410185576 0.001307868201826126 -0.0005751839750604643 -0.0005405342870814439 -0.0004561799210497704 
-0.001227368417172955 0.002428547677829464 -0.001246165331678083 -0.001401120983922005 -0.001472311176552967 -0.001181645455234968 
-0.001108760360489914 -0.002743234916143672 -0.0004467022296322147 0.002323453396912297 -0.002780456459409123 -0.001072188035935598 
-0.0001595624388615405 -0.0002302987923374024 -0.0001106792799517207 0.0008459995344557746 -0.0001918330433286589 -0.0001789920330862675 
-0.0001595624388615405 -0.0002302987923374024 -0.0001106792799517207 0.0008459995344557746 -0.0001918330433286589 -0.0001789920330862675 
-0.0001595624388615405 -0.0002302987923374024 -0.0001106792799517207 0.0008459995344557746 -0.0001918330433286589 -0.0001789920330862675 
-0.0001595624388615405 -0.0002302987923374024 -0.0001106792799517207 0.0008459995344557746 -0.0001918330433286589 -0.0001789920330862675 
-0.0001595624388615405 -0.0002302987923374024 -0.0001106792799517207 0.0008459995344557746 -0.0001918330433286589 -0.0001789920330862675 
-0.0007621827792122644 0.001644846595345662 -0.0007664594070913907 -0.0009054825833407996 -0.0008600448346193793 -0.0007320959235739095 
0.00095000710551143 -0.0001748891547539117 -0.0001513582131268414 -0.0001489236735887717 -0.0002606988035733093 -8.638033592722588e-05 
0.0007186317315954118 -0.0002459309551872264 -0.0001859201422587337 -0.0001846875295242112 -0.0002129297902674897 -0.0001752104027322128 
-0.001534812824599197 -0.002812613230527146 0.001811948383483378 -0.002649028639493632 5.617437187889718e-05 -0.002290392935099878 
-0.0001595624388615405 -0.0002302987923374024 -0.0001106792799517207 0.0008459995344557746 -0.0001918330433286589 -0.0001789920330862675 
-0.004094624895044057 -0.00338601625105949 -0.001803761444888426 -0.001961468501634886 -0.002126616071927943 -0.004084228246010086 
-0.0002177771380368914 -0.0002794227685064939 -0.0002086398521942479 -0.0003662558599749009 -0.0003022278283269393 0.0008866465032266108 
0.00095000710551143 -0.0001748891547539117 -0.0001513582131268414 -0.0001489236735887717 -0.0002606988035733093 -8.638033592722588e-05 
-0.0007725275104644932 -0.0009741843728496841 -0.0007967946751586191 -0.0009167455618446719 0.001834859786300412 -0.0007424105228626514 
-0.0002177771380368914 -0.0002794227685064939 -0.0002086398521942479 -0.0003662558599749009 -0.0003022278283269393 0.0008866465032266108 
-0.0002177771380368914 -0.0002794227685064939 -0.0002086398521942479 -0.0003662558599749009 -0.0003022278283269393 0.0008866465032266108 
-0.0006716396737143246 0.0006782049838077355 -0.002517736884445007 -0.002064944762746124 -0.0009105577369755585 -0.0007317634645434751 
0.0007186317315954118 -0.0002459309551872264 -0.0001859201422587337 -0.0001846875295242112 -0.0002129297902674897 -0.0001752104027322128 
-0.0001595624388615405 -0.0002302987923374024 -0.0001106792799517207 0.0008459995344557746 -0.0001918330433286589 -0.0001789920330862675 
-9.392607711679707e-05 -8.898315994877661e-05 -5.104248271852434e-05 -0.0001141020907367826 -7.600715263033497e-05 0.0005493423194761726 
-9.392607711679707e-05 -8.898315994877661e-05 -5.104248271852434e-05 -0.0001141020907367826 -7.600715263033497e-05 0.0005493423194761726 
-0.00127411242552367 0.001302249529337501 -0.0002859390347809362 -0.001429095044787688 -0.002493615449860894 -0.001442685492627045 
0.0007186317315954118 -0.0002459309551872264 -0.0001859201422587337 -0.0001846875295242112 -0.0002129297902674897 -0.0001752104027322128 
0.0007186317315954118 -0.0002459309551872264 -0.0001859201422587337 -0.0001846875295242112 -0.0002129297902674897 -0.0001752104027322128 
-0.0007725275104644932 -0.0009741843728496841 -0.0007967946751586191 -0.0009167455618446719 0.001834859786300412 -0.0007424105228626514 
-0.0001595624388615405 -0.0002302987923374024 -0.0001106792799517207 0.0008459995344557746 -0.0001918330433286589 -0.0001789920330862675 
-1.902271625089621e-05 -0.00120630181622559 0.001335436785947764 -0.001121335246653057 -0.001285920140645891 -0.001002972424382469 
-0.0001595624388615405 -0.0002302987923374024 -0.0001106792799517207 0.0008459995344557746 -0.0001918330433286589 -0.0001789920330862675 
-0.0001595624388615405 -0.0002302987923374024 -0.0001106792799517207 0.0008459995344557746 -0.0001918330433286589 -0.0001789920330862675 
-0.0001595624388615405 -0.0002302987923374024 -0.0001106792799517207 0.0008459995344557746 -0.0001918330433286589 -0.0001789920330862675 
-0.000511887223967789 -0.0005610852410185576 0.001307868201826126 -0.0005751839750604643 -0.0005405342870814439 -0.0004561799210497704 
0.00095000710551143 -0.0001748891547539117 -0.0001513582131268414 -0.0001489236735887717 -0.0002606988035733093 -8.638033592722588e-05 
-0.0002177771380368914 -0.0002794227685064939 -0.0002086398521942479 -0.0003662558599749009 -0.0003022278283269393 0.0008866465032266108 
0.0002473660775801829 -0.0008446356759798993 -0.0005562817571232266 0.0001809540542198799 -0.000782997814553423 0.001081786386884303 
-0.001667660466075813 -0.00202428418842378 -0.001522448020345721 -0.0008807022775809084 0.003172469648045559 -0.0009175842967383307 
0.00095000710551143 -0.0001748891547539117 -0.0001513582131268414 -0.0001489236735887717 -0.0002606988035733093 -8.638033592722588e-05 
-0.0001595624388615405 -0.0002302987923374024 -0.0001106792799517207 0.0008459995344557746 -0.0001918330433286589 -0.0001789920330862675 
-0.0007355705167497795 -0.0008198010232366938 -0.0006149740652353803 -0.0008099562501920112 0.001529442905073805 3.81825921058794e-06 
-0.0009690298217623262 -0.001031412661471678 0.001486794999074605 -0.0009724115730642853 -0.001025221337072581 -0.0009165920884552435 
-9.392607711679707e-05 -8.898315994877661e-05 -5.104248271852434e-05 -0.0001141020907367826 -7.600715263033497e-05 0.0005493423194761726 
-9.392607711679707e-05 -8.898315994877661e-05 -5.104248271852434e-05 -0.0001141020907367826 -7.600715263033497e-05 0.0005493423194761726 
0.000130735586696222 -0.002275371676095559 1.20734086116868e-05 -0.001093643296299127 0.0005528567094191753 -0.001089830896181956 
-0.0002177771380368914 -0.0002794227685064939 -0.0002086398521942479 -0.0003662558599749009 -0.0003022278283269393 0.0008866465032266108 
0.0007186317315954118 -0.0002459309551872264 -0.0001859201422587337 -0.0001846875295242112 -0.0002129297902674897 -0.0001752104027322128 
-0.0001595624388615405 -0.0002302987923374024 -0.0001106792799517207 0.0008459995344557746 -0.0001918330433286589 -0.0001789920330862675 
-9.392607711679707e-05 -8.898315994877661e-05 -5.104248271852434e-05 -0.0001141020907367826 -7.600715263033497e-05 0.0005493423194761726 
-0.001480917045730115 -0.001592497902490235 0.002794663200900731 -0.001547595548124749 -0.001565755624154025 -0.001372772009505014 
-0.000511887223967789 -0.0005610852410185576 0.001307868201826126 -0.0005751839750604643 -0.0005405342870814439 -0.0004561799210497704 
0.000856081028394633 -0.0002638723147026882 -0.0002024006958453657 -0.0002630257643255544 -0.0003367059562036442 0.0004629619835489467 
-0.0009690298217623262 -0.001031412661471678 0.001486794999074605 -0.0009724115730642853 -0.001025221337072581 -0.0009165920884552435 
-0.0001595624388615405 -0.0002302987923374024 -0.0001106792799517207 0.0008459995344557746 -0.0001918330433286589 -0.0001789920330862675 
-0.001386930856034496 0.002198248885492061 -0.001356844611629804 -0.0005551214494662303 -0.001664144219881626 -0.001360637488321235 
-0.004856807674256322 -0.001741169655713828 -0.002570220851979817 -0.002866951084975686 -0.002986660906547324 -0.004816324169583996 
-9.392607711679707e-05 -8.898315994877661e-05 -5.104248271852434e-05 -0.0001141020907367826 -7.600715263033497e-05 0.0005493423194761726 
-0.0002177771380368914 -0.0002794227685064939 -0.0002086398521942479 -0.0003662558599749009 -0.0003022278283269393 0.0008866465032266108 
-0.0002177771380368914 -0.0002794227685064939 -0.0002086398521942479 -0.0003662558599749009 -0.0003022278283269393 0.0008866465032266108 
-9.392607711679707e-05 -8.898315994877661e-05 -5.104248271852434e-05 -0.0001141020907367826 -7.600715263033497e-05 0.0005493423194761726 
-0.0007621827792122644 0.001644846595345662 -0.0007664594070913907 -0.0009054825833407996 -0.0008600448346193793 -0.0007320959235739095 
0.0007186317315954118 -0.0002459309551872264 -0.0001859201422587337 -0.0001846875295242112 -0.0002129297902674897 -0.0001752104027322128 
-0.0009690298217623262 -0.001031412661471678 0.001486794999074605 -0.0009724115730642853 -0.001025221337072581 -0.0009165920884552435 
-0.0009690298217623262 -0.001031412661471678 0.001486794999074605 -0.0009724115730642853 -0.001025221337072581 -0.0009165920884552435 
0.0007186317315954118 -0.0002459309551872264 -0.0001859201422587337 -0.0001846875295242112 -0.0002129297902674897 -0.0001752104027322128 
-0.0002177771380368914 -0.0002794227685064939 -0.0002086398521942479 -0.0003662558599749009 -0.0003022278283269393 0.0008866465032266108 
-0.0001595624388615405 -0.0002302987923374024 -0.0001106792799517207 0.0008459995344557746 -0.0001918330433286589 -0.0001789920330862675 
-9.392607711679707e-05 -8.898315994877661e-05 -5.104248271852434e-05 -0.0001141020907367826 -7.600715263033497e-05 0.0005493423194761726 
-0.000511887223967789 -0.0005610852410185576 0.001307868201826126 -0.0005751839750604643 -0.0005405342870814439 -0.0004561799210497704 
-9.392607711679707e-05 -8.898315994877661e-05 -5.104248271852434e-05 -0.0001141020907367826 -7.600715263033497e-05 0.0005493423194761726 
-0.001864162777373647 -0.002081512477045774 0.0007611416538875039 -0.0009363682888005219 0.0003123885246725653 -0.001091765862330923 
-0.000511887223967789 -0.0005610852410185576 0.001307868201826126 -0.0005751839750604643 -0.0005405342870814439 -0.0004561799210497704 
-0.0008235904391214775 -0.0009294911694738279 0.001048185866913354 -0.001055541925772147 -0.0009187692680387181 0.0009798089016530131 
-0.0002177771380368914 -0.0002794227685064939 -0.0002086398521942479 -0.0003662558599749009 -0.0003022278283269393 0.0008866465032266108 
-0.001075642415952755 -0.0001165646788843329 -0.002252753189122287 0.001399309023414306 -0.002681913287921795 -0.001506416189123907 
-0.001321294494289752 0.002339564517880687 -0.001297207814396608 -0.001515223074658787 -0.001548318329183302 -0.000632303135758795 
0.0007186317315954118 -0.0002459309551872264 -0.0001859201422587337 -0.0001846875295242112 -0.0002129297902674897 -0.0001752104027322128 
0.00095000710551143 -0.0001748891547539117 -0.0001513582131268414 -0.0001489236735887717 -0.0002606988035733093 -8.638033592722588e-05 
-0.0009690298217623262 -0.001031412661471678 0.001486794999074605 -0.0009724115730642853 -0.001025221337072581 -0.0009165920884552435 
-9.392607711679707e-05 -8.898315994877661e-05 -5.104248271852434e-05 -0.0001141020907367826 -7.600715263033497e-05 0.0005493423194761726 
0.0004069285164417233 -0.0006143368836424969 -0.0004456024771715059 -0.0006650454802358948 -0.000591164771224764 0.001260778419970571 
-0.000511887223967789 -0.0005610852410185576 0.001307868201826126 -0.0005751839750604643 -0.0005405342870814439 -0.0004561799210497704 
-9.392607711679707e-05 -8.898315994877661e-05 -5.104248271852434e-05 -0.0001141020907367826 -7.600715263033497e-05 0.0005493423194761726 
-9.392607711679707e-05 -8.898315994877661e-05 -5.104248271852434e-05 -0.0001141020907367826 -7.600715263033497e-05 0.0005493423194761726 
0.0007186317315954118 -0.0002459309551872264 -0.0001859201422587337 -0.0001846875295242112 -0.0002129297902674897 -0.0001752104027322128 
0.00095000710551143 -0.0001748891547539117 -0.0001513582131268414 -0.0001489236735887717 -0.0002606988035733093 -8.638033592722588e-05 
0.0007186317315954118 -0.0002459309551872264 -0.0001859201422587337 -0.0001846875295242112 -0.0002129297902674897 -0.0001752104027322128 
-9.392607711679707e-05 -8.898315994877661e-05 -5.104248271852434e-05 -0.0001141020907367826 -7.600715263033497e-05 0.0005493423194761726 
0.0003083626658784475 -0.0009057070180418288 -0.0007152897956436974 -0.0008447778330440002 0.001344751254130831 -0.0006319043961928105 
-9.392607711679707e-05 -8.898315994877661e-05 -5.104248271852434e-05 -0.0001141020907367826 -7.600715263033497e-05 0.0005493423194761726 
-0.001833181718257542 0.00177847927686213 1.06603874295181e-05 -0.002090407049719252 -0.002088852616264746 -0.001088483056808565 
-0.0009690298217623262 -0.001031412661471678 0.001486794999074605 -0.0009724115730642853 -0.001025221337072581 -0.0009165920884552435 
-0.0009690298217623262 -0.001031412661471678 0.001486794999074605 -0.0009724115730642853 -0.001025221337072581 -0.0009165920884552435 
-0.0001595624388615405 -0.0002302987923374024 -0.0001106792799517207 0.0008459995344557746 -0.0001918330433286589 -0.0001789920330862675 
-9.392607711679707e-05 -8.898315994877661e-05 -5.104248271852434e-05 -0.0001141020907367826 -7.600715263033497e-05 0.0005493423194761726 
0.00095000710551143 -0.0001748891547539117 -0.0001513582131268414 -0.0001489236735887717 -0.0002606988035733093 -8.638033592722588e-05 
-0.0006416444396329825 -0.0007308178632879172 -0.000563931582516856 -0.0006958541594552285 0.001605450057704141 -0.0005455240602655847 
-0.000511887223967789 -0.0005610852410185576 0.001307868201826126 -0.0005751839750604643 -0.0005405342870814439 -0.0004561799210497704 
-9.392607711679707e-05 -8.898315994877661e-05 -5.104248271852434e-05 -0.0001141020907367826 -7.600715263033497e-05 0.0005493423194761726 
-9.392607711679707e-05 -8.898315994877661e-05 -5.104248271852434e-05 -0.0001141020907367826 -7.600715263033497e-05 0.0005493423194761726 
-9.392607711679707e-05 -8.898315994877661e-05 -5.104248271852434e-05 -0.0001141020907367826 -7.600715263033497e-05 0.0005493423194761726 
0.0007186317315954118 -0.0002459309551872264 -0.0001859201422587337 -0.0001846875295242112 -0.0002129297902674897 -0.0001752104027322128 
-9.392607711679707e-05 -8.898315994877661e-05 -5.104248271852434e-05 -0.0001141020907367826 -7.600715263033497e-05 0.0005493423194761726 
-9.392607711679707e-05 -8.898315994877661e-05 -5.104248271852434e-05 -0.0001141020907367826 -7.600715263033497e-05 0.0005493423194761726 
-0.0007296643620046804 -0.0008405080095250514 0.001099228349631878 -0.0009414398350353652 -0.0008427621154083832 0.0004304665821768404 
-0.000511887223967789 -0.0005610852410185576 0.001307868201826126 -0.0005751839750604643 -0.0005405342870814439 -0.0004561799210497704 
-0.0002177771380368914 -0.0002794227685064939 -0.0002086398521942479 -0.0003662558599749009 -0.0003022278283269393 0.0008866465032266108 
0.000856081028394633 -0.0002638723147026882 -0.0002024006958453657 -0.0002630257643255544 -0.0003367059562036442 0.0004629619835489467 
-9.392607711679707e-05 -8.898315994877661e-05 -5.104248271852434e-05 -0.0001141020907367826 -7.600715263033497e-05 0.0005493423194761726 
-0.001227368417172955 0.002428547677829464 -0.001246165331678083 -0.001401120983922005 -0.001472311176552967 -0.001181645455234968 
-0.0002177771380368914 -0.0002794227685064939 -0.0002086398521942479 -0.0003662558599749009 -0.0003022278283269393 0.0008866465032266108 
-0.000511887223967789 -0.0005610852410185576 0.001307868201826126 -0.0005751839750604643 -0.0005405342870814439 -0.0004561799210497704 
-0.0002177771380368914 -0.0002794227685064939 -0.0002086398521942479 -0.0003662558599749009 -0.0003022278283269393 0.0008866465032266108 
0.00095000710551143 -0.0001748891547539117 -0.0001513582131268414 -0.0001489236735887717 -0.0002606988035733093 -8.638033592722588e-05 
0.0007186317315954118 -0.0002459309551872264 -0.0001859201422587337 -0.0001846875295242112 -0.0002129297902674897 -0.0001752104027322128 
-9.392607711679707e-05 -8.898315994877661e-05 -5.104248271852434e-05 -0.0001141020907367826 -7.600715263033497e-05 0.0005493423194761726 
-9.392607711679707e-05 -8.898315994877661e-05 -5.104248271852434e-05 -0.0001141020907367826 -7.600715263033497e-05 0.0005493423194761726 
-0.000511887223967789 -0.0005610852410185576 0.001307868201826126 -0.0005751839750604643 -0.0005405342870814439 -0.0004561799210497704 
-0.0009690298217623262 -0.001031412661471678 0.001486794999074605 -0.0009724115730642853 -0.001025221337072581 -0.0009165920884552435 
-4.355104761685259e-05 0.001398915640158436 -0.0009523795493501243 -0.001090170112865011 -0.001072974624886869 -0.0009073063263061223 
-0.001169540665135124 -0.001497538959527307 -0.001283893086185531 0.002567817371080659 -0.001485162497098772 -0.001237282249098944 
-9.392607711679707e-05 -8.898315994877661e-05 -5.104248271852434e-05 -0.0001141020907367826 -7.600715263033497e-05 0.0005493423194761726 
-9.392607711679707e-05 -8.898315994877661e-05 -5.104248271852434e-05 -0.0001141020907367826 -7.600715263033497e-05 0.0005493423194761726 
-9.392607711679707e-05 -8.898315994877661e-05 -5.104248271852434e-05 -0.0001141020907367826 -7.600715263033497e-05 0.0005493423194761726 
-9.392607711679707e-05 -8.898315994877661e-05 -5.104248271852434e-05 -0.0001141020907367826 -7.600715263033497e-05 0.0005493423194761726 
-0.0007621827792122644 0.001644846595345662 -0.0007664594070913907 -0.0009054825833407996 -0.0008600448346193793 -0.0007320959235739095 
0.0007186317315954118 -0.0002459309551872264 -0.0001859201422587337 -0.0001846875295242112 -0.0002129297902674897 -0.0001752104027322128 
0.0005557287434586304 -0.001750342694021728 -0.001271571552766924 -0.0006638237788241202 0.0005617534395774082 0.0004498819906914926 
0.0007186317315954118 -0.0002459309551872264 -0.0001859201422587337 -0.0001846875295242112 -0.0002129297902674897 -0.0001752104027322128 
0.0007186317315954118 -0.0002459309551872264 -0.0001859201422587337 -0.0001846875295242112 -0.0002129297902674897 -0.0001752104027322128 
-0.0002177771380368914 -0.0002794227685064939 -0.0002086398521942479 -0.0003662558599749009 -0.0003022278283269393 0.0008866465032266108 
-0.001227368417172955 0.002428547677829464 -0.001246165331678083 -0.001401120983922005 -0.001472311176552967 -0.001181645455234968 
-0.001414171950097476 -0.001705002236137601 -0.001360726257675475 -0.001612599721299901 0.003440309844004553 -0.001287934583128236 
